{"hidden_weights": [-0.0099679266461419318, -0.012929329454478073, 0.0, -0.0082608908440619608, -0.00054071733950239833, -0.0014631965771850323, -0.007411000945180525, -0.0030977231953135407, -0.00020385093473472397, -0.0002612388905414732, -0.015680182986073422, -0.0027035894873003734, -0.0092291352376687088, -0.0079098369664230127, -0.0017212612275018609, -0.008554743083610929, 0.0, -0.0096449334925817285, -0.00696662275949425, -0.0046336698741525836, -0.0073657809563240709, -0.016471153030145513, -0.0058245844601711016, -0.001787527704029446, -0.0005112247221978264, -0.0012696918762628983, -5.1796331560575704e-05, -0.0069944938402007233, -0.0071675166420310287, -0.041237524673127864, -0.0097435287467051764, -0.0089050312394555221, -0.0042417094131234259, -0.011426213345911439, -0.00098527362742898642, 2.9840280202744605e-05, -0.0043617283782767689, -0.0014812614852557156, -0.00018963368642258292, 0.0, -0.015953857999275008, -0.007174289439741471, -0.0067158272617449302, -0.002284779649562565, -0.0029567863334063155, -0.00029928187400567549, -0.02427797400965407, -0.0007589021456564113, -0.00067889817330256885, -0.0096398834517684422, -0.0011364726973649708, -0.0021126848887098228, -0.003470174743237972, -0.0017957132111538596, -0.015733228987823332, -0.0086541017567844467, -0.0064707558768411387, -0.00044749601820169788, -0.0089676547346190048, -0.006409496269766916, -0.00019077274128480128, 0.00012361786393222938, 0.0, -0.0047842720192390461, -0.010601232943546054, -0.014413326139799383, 0.0, 0.00038720461899151775, 0.0, -0.00022137096005690486, -0.0062953163018387272, -0.00057545196571479431, -0.0051339564173859637, -0.0068311253292665883, -0.0051394653875403507, -0.0031402546974768171, 0.0, -0.003331858506250107, -0.0036111403739278046, -0.0083738671534258798, -0.00020701467072444863, -0.0019195441481617529, -0.019997754393287451, -0.0056007357769393374, -0.00041849816426759215, -0.010437712700281019, -0.011977039596579888, 0.0, -0.0013819526565583271, -0.0029144573275908157, 0.00013434214134099985, -0.0038788961173683288, -0.0062933736827625736, -0.00030853843756838985, -0.0005923133833425951, -0.0088767988335342763, -0.0071572058568543295, -0.0092779324143613551, -0.0064781649701881831, -0.016992976873051707, -0.0073834865422689145, -0.0012373438487330544, -0.00018291103068547105, -0.010003132892724118, -0.010104114415611711, -4.8562485418785876e-05, -0.0051751350401463897, -0.0052508846328786296, -0.0014497276728927216, 0.0, -0.00067334447014717291, -8.7186418595492987e-05, -0.0051547938607583946, -0.00012387041097326585, -0.016333283774552964, -0.00094633244283761795, -0.0046697138700484819, -0.0020500195144395961, -0.0039505021243120093, -0.0076807548461146303, -0.0024796913764893805, 0.0, 0.0, -0.0029367504840132103, -0.00056817883321941471, -0.01773238948004217, -0.00088090087784060359, -0.0074139286040498893], "hidden2output_weights": [[-0.13837991944356678, -0.13837991944356678], [-1.832621770972662, -1.832621770972662], [0.034596702568585963, 0.034596702568585963], [0.25148395308493487, 0.25148395308493487], [-0.084683083006774768, -0.084683083006774768], [-0.14369137374369459, -0.14369137374369459], [-1.0454616102640408, -1.0454616102640408], [-0.087727828910915406, -0.087727828910915406], [0.18987012588777286, 0.18987012588777286], [0.042413566152256353, 0.042413566152256353], [0.029529884628198704, 0.029529884628198704], [0.19968645434109547, 0.19968645434109547], [-0.91223983519059171, -0.91223983519059171], [-0.080728673855537364, -0.080728673855537364], [-0.1696857286534614, -0.1696857286534614], [0.2170400292623077, 0.2170400292623077], [-0.01026182943684098, -0.01026182943684098], [0.21254789111876207, 0.21254789111876207], [-0.4467042019637622, -0.4467042019637622], [0.21571996518955128, 0.21571996518955128], [-0.49933129146207933, -0.49933129146207933], [0.31804755206319618, 0.31804755206319618], [-0.15311753062262293, -0.15311753062262293], [0.010062075000289309, 0.010062075000289309], [0.16947127650820529, 0.16947127650820529], [0.083289795819775053, 0.083289795819775053], [-0.16477416284213292, -0.16477416284213292], [-0.81230528281546655, -0.81230528281546655], [-0.066757255639468854, -0.066757255639468854], [-2.4812730747998026, -2.4812730747998026], [-1.5752703341851655, -1.5752703341851655], [0.32678498290111285, 0.32678498290111285], [-0.16818558617342744, -0.16818558617342744], [-1.2865967469122548, -1.2865967469122548], [0.13139591820706364, 0.13139591820706364], [0.22634310344479852, 0.22634310344479852], [0.010893223727698128, 0.010893223727698128], [-0.096931064255312421, -0.096931064255312421], [-0.13919330097850618, -0.13919330097850618], [0.13303058641854187, 0.13303058641854187], [-1.6289657051394655, -1.6289657051394655], [0.22631340873183511, 0.22631340873183511], [0.015913045306741029, 0.015913045306741029], [0.081142562338125113, 0.081142562338125113], [-0.051861305456409657, -0.051861305456409657], [-0.18277503457931349, -0.18277503457931349], [-2.324491591593143, -2.324491591593143], [-0.15178038748159278, -0.15178038748159278], [-0.20548571876695326, -0.20548571876695326], [0.59457534045537985, 0.59457534045537985], [0.030742205349662603, 0.030742205349662603], [0.082095017073515381, 0.082095017073515381], [-0.06108817134666527, -0.06108817134666527], [-0.22045391318683055, -0.22045391318683055], [-2.0782247051519613, -2.0782247051519613], [-0.2156635716316172, -0.2156635716316172], [0.15676933173950156, 0.15676933173950156], [0.11772085201597948, 0.11772085201597948], [0.3736656788378086, 0.3736656788378086], [0.14278126707998065, 0.14278126707998065], [0.079114756605550299, 0.079114756605550299], [0.14161763896936591, 0.14161763896936591], [-0.12882913108936392, -0.12882913108936392], [0.054339160170945103, 0.054339160170945103], [-0.0048765631259980865, -0.0048765631259980865], [0.24545945610753089, 0.24545945610753089], [-0.11426663001480077, -0.11426663001480077], [-0.053809939844062238, -0.053809939844062238], [-0.0080832076002115838, -0.0080832076002115838], [-0.17854221571845244, -0.17854221571845244], [0.40363575795528295, 0.40363575795528295], [-0.016486528445183911, -0.016486528445183911], [0.32050065946193662, 0.32050065946193662], [-0.080318476332800065, -0.080318476332800065], [0.037952500885661787, 0.037952500885661787], [-0.28642350395679678, -0.28642350395679678], [-0.18061249626071393, -0.18061249626071393], [-0.17691444547548857, -0.17691444547548857], [0.33739826737688083, 0.33739826737688083], [-0.90351568166577079, -0.90351568166577079], [-0.094953722322183715, -0.094953722322183715], [0.10825320563870505, 0.10825320563870505], [-0.2413519828332665, -0.2413519828332665], [0.32931058988685191, 0.32931058988685191], [-0.10620930204875496, -0.10620930204875496], [0.29757711700798628, 0.29757711700798628], [0.091208191439771033, 0.091208191439771033], [0.15681732848449292, 0.15681732848449292], [0.055019735534134605, 0.055019735534134605], [0.07037296479892359, 0.07037296479892359], [0.084633778467045645, 0.084633778467045645], [-0.079358778420141357, -0.079358778420141357], [0.24301829449914, 0.24301829449914], [0.048175730109002342, 0.048175730109002342], [0.079825034191858393, 0.079825034191858393], [-0.48769536439891226, -0.48769536439891226], [-0.83206722560110946, -0.83206722560110946], [0.51967393949017915, 0.51967393949017915], [0.1962128952221919, 0.1962128952221919], [0.6803465825031586, 0.6803465825031586], [-1.3153936256010408, -1.3153936256010408], [0.17723238059011148, 0.17723238059011148], [0.16608427157758721, 0.16608427157758721], [-0.72561441564760476, -0.72561441564760476], [0.93582322791963124, 0.93582322791963124], [0.24635030433581578, 0.24635030433581578], [0.1253186627944487, 0.1253186627944487], [0.024233226773611664, 0.024233226773611664], [0.058890793848309711, 0.058890793848309711], [-0.017155488771097654, -0.017155488771097654], [-0.025962710504834813, -0.025962710504834813], [0.10287900525007697, 0.10287900525007697], [-0.092888228785442159, -0.092888228785442159], [-0.075400769059749198, -0.075400769059749198], [0.4494205912204195, 0.4494205912204195], [-0.16605129241348032, -0.16605129241348032], [-0.25589739611057877, -0.25589739611057877], [-0.096269203433857184, -0.096269203433857184], [-0.082657710368929369, -0.082657710368929369], [-0.092061372662770549, -0.092061372662770549], [0.055222908408751797, 0.055222908408751797], [0.11287967376500008, 0.11287967376500008], [-0.19488483788901653, -0.19488483788901653], [0.018390417999878499, 0.018390417999878499], [0.037617430321938129, 0.037617430321938129], [-0.22786789898024026, -0.22786789898024026], [0.11520320506619093, 0.11520320506619093], [-0.98698183598229805, -0.98698183598229805]], "output_weights": [-0.49380969365627242, 0.49380969365627247], "input2hidden_weights": [[0.057752069833197771, 0.090072457137190073, -0.033618140788071973, -0.039155883116000857, -0.086830036710311309, -0.047435759347078318, 0.072308819397008839, 0.10782524541897145, 0.051318125966720772, -0.082632747271368004, 0.18698048302958828, -0.026332944951225224, -0.02694059136718157, -0.012227990049338382, 0.0801102127041389, 0.11631896173771203, -0.003114311661892466, 0.14089714131769535, 0.012244093288874039, -0.061870637611244679, 0.016330592409725564, 0.12350645063429563, 0.0010640614260312229, -0.035856766137128002, -0.037808565753099745, -0.046016213905729679, 0.036603485745735971, 0.12262654673940027, 0.03207703717120812, 0.16968590981025233, -0.044482101315860417, 0.14515661716915357, -0.050198723023733509, -0.030302205343654885, -0.046847471511219589, 0.013705446924996664, -0.058428528063079833, -0.0058897499221072496, -0.089560611256398956, -0.0033591770334526622, 0.12539853711876509, 0.049103273267692663, 0.012777144812771021, 0.0034036823615322905, -0.011552691572708038, 0.10800902568727361, 0.11562291849516464, -0.036332106979305286, 0.047638121817577449, 0.15414515877584364, -0.041251020905033318, 0.059077562614166447, 0.086398144482137312, 0.10948535647107151, 0.026043726025308772, 0.12476327590847981, 0.006816505146350643, 0.052998028707610716, 0.16297007774942276, -0.046344455998112648, 0.012449631524112088, 0.088043965538775762, 0.11082330574992376, 0.10678642760489332, -0.014447229020807639, 0.021844246982519522, 0.00055446032418478286, -0.019222763729165773, 0.097264151307182203, -0.080757575356350184, 0.0020366494448680697, 0.057660775742184769, 0.066036319179686567, 0.12204110017816269, -0.029500034489661226, -0.036538027651731184, -0.037686302290687271, 0.023919397556126574, -0.033349104894775577, 0.060723186135505626, 0.10926062805579236, -0.0052260431668523155, 0.19450653168111703, -0.024152362224885034, -0.055494417612629458, 0.062365828114942588, 0.087470894117218215, 0.057014283333557195, -0.059546351653091377, 0.020891218448660147, -0.10505035978071975, -0.052931675712093867, 0.063510654712261916, -0.020516116609854567, 0.093029920436937336, 0.021780473404371243, 0.091478898016562199, 0.15467014170845078, 0.053196275389221843, 0.067466024096283855, -0.0050922727473661699, 0.11674367872023814, -0.058813318484426655, 0.17206257007249937, 0.064516701708433405, 0.020421466431764033, -0.051022675726268174, 0.014058457964105131, 0.1027181459825626, 0.07300685731148053, -0.012281184491665575, -0.088112934186631492, -0.010752778930880069, 0.094452094148052987, 0.084829197127545997, 0.035132497104925366, -0.046361680552229667, 0.11892120899520725, 0.0005400668353302303, 0.12703470706187112, 0.022448628645974206, -0.017913837021463666, -0.063504062259636812, 0.12123433957785912, 0.017708856726860255, 0.0337321493316729, -0.0064829198815074497, 0.026147831070889735], [-0.10189774176160525, -0.10652559923649976, 0.030836484192066652, 0.031524727762008528, -0.11516011381277989, -0.054392197419819793, -0.12733726673726203, -0.12279393738967839, 0.10474257070491604, 0.069265817244829636, -0.049951801631766317, -0.11021072153597343, -0.060967771736856628, -0.17872702569829704, -0.089309166919646799, 0.025805557468561276, -0.083211483980622655, -0.092287413053768086, -0.053884639069534258, -0.024455081751319094, -0.170211117707183, -0.13961759721125855, -0.037615766884409242, 0.043178575000943749, 0.072713491295463312, 0.046231644972861065, 0.0078440531401122535, 0.0063818230537179216, -0.026895859507264138, -0.36012507284166445, -0.1287980250013657, -0.14257995319935673, 0.055210622982513495, -0.011487416157345255, -0.11305761925249047, 0.10465555523416124, 0.055403494862222007, 0.060470737817967225, -0.10020675216348905, -0.00059936906848419291, -0.1373600325809933, -0.14191664217977609, -0.034923816129708629, 0.063001030628373353, -0.091944431826754783, 0.10568187324343972, -0.093683857690347969, 0.0033284086058555954, -0.06158972870588858, -0.016420594085325022, -0.037021260118395828, -0.0078685360016838724, -0.12874960120044782, 0.033222952708417623, -0.1637735377793452, -0.16526370941529628, -0.055012441452142999, -0.10059935689755664, -0.032048224232168819, -0.069734239311473503, -0.046310214374143427, -0.086673889965140125, -0.0024189818858846024, -0.011624898523848065, 0.019598921094689713, -0.13301040028326661, -0.044638252816269222, -0.10373981428072782, 0.079707112426654694, 0.10171580226502913, -0.074084964852648191, -0.04556269855059307, -0.056423894737837606, -0.0039423804314735363, -0.0073460257805902374, 0.039769084284132152, 0.079086106683061944, 0.017521712610545505, -0.084372065750816017, -0.043763368977978521, -0.014814873317521854, 0.09900676069272564, -0.089160712328754957, -0.037581692895125134, 0.050898164413053143, -0.080122135612409967, -0.0198711854278808, 0.021987277478968212, -0.041192721074377471, -0.047648892486110199, 0.11168694245454493, -0.004478735037671688, -0.12076805680138447, 0.0048950815793096999, 0.028019554002963892, -0.16017266899553925, -0.055586418949768721, -0.081111260597299131, -0.10793860285973503, -0.16415894601561365, -0.0049581204323826652, 0.018381839441998248, 0.054950364147055737, 0.0045299721938883309, -0.01727921390345661, 0.112278389472694, 0.02483039585392818, -0.13383400471644463, -0.04881357464071949, -0.012779243965482204, 0.00078517235058214176, -0.068937880857741982, -0.10052960554667087, -0.10922170894609934, -0.11973131919965445, -0.1035777683228162, 0.030118228276890931, -0.031509960433577316, -0.14143264908234351, -0.053390968818962777, -0.082906559085367898, 0.084534886220157354, 0.043971101359731604, 0.071992756698728955, 0.095613819727901117, -0.25094086241550539, -0.044306348820136704, -0.11405510317485727], [-0.0040986191150794689, -0.016608013316264124, -0.086007970205621731, -0.10383150468245364, 0.036606948899676951, -0.034115515599451196, -0.092062875821424334, -0.020904742075644172, -0.0716304223169794, -0.038523447570687826, 0.007656980814298101, 0.048891430188473584, -0.0020362562075726546, -0.068791272391322128, -0.12179344669784303, -0.094556943636387891, -0.087902958047022209, -0.077985540889406832, 0.0011587684452888656, -0.066849181163524909, 0.0076341060404122967, -0.04659032537099729, -0.12021433226603717, 0.085404611325243143, -0.055934690922523914, -0.0063917181202437796, -0.10254429172026029, 0.05840753317943511, -0.14637086826523082, -0.15406080539636496, 0.047865227583861192, -0.13895266318580163, -0.13029212449665753, -0.0001333234841924517, 0.054426638117633257, -0.0011654860999524852, -0.10318201530280253, 0.077703472646652033, -0.055682156535286305, 0.047260849420884557, -0.14709778641278873, -0.12979932205507375, 0.015443924774439323, -0.03933955893396094, -0.036384803855728565, -0.012983819464436171, -0.069467371759574834, 0.06176145003796199, 0.0059872888985709116, -0.11991569387426983, -0.086443552754177172, -0.093409841331429766, 0.011746979160935188, 0.043855968573623415, -0.16038552975943726, -0.13625428442931634, -0.079908180648652308, -0.0061169497620198543, -0.1057449839774683, 0.076005941472847671, -0.037850440169193554, -0.0069487985894365082, 0.026814610335978137, 0.057221107143616959, -0.00020373717451381077, -0.16489108516481957, 0.011259471562109657, -0.0065674016349558254, -0.083570002559855597, -0.080292961342189009, 0.056673318591412315, -0.060160900480177651, -0.031588749860288694, -0.053831607639567486, 0.031062116410500339, 0.042805329700267312, -0.054502465696306616, -0.12665172564332797, -0.073602042225104816, -0.14503194472020328, -0.090018508688927579, 0.052502820316608627, -0.21203662458883435, 0.061446008906179503, -0.058582354147563992, -0.10247724460894965, -0.057318878675774086, 0.11069453284499238, -0.0067557938703775577, -0.12553227349456905, -0.099467323835222887, -0.028445782059344421, 0.047597252468970022, -0.049016110113123831, 0.017127688888065536, 0.037980605027863136, 0.071454429591616103, 0.051681687828003697, -0.081389914333460572, -0.016294310557091407, -0.13910621406911972, -0.047182001957801943, 0.0084080948545742999, -0.0014522880769152005, -0.13675964290033074, -0.0773183310718073, -0.12701571169470649, -0.058683383445978836, 0.072448781837214413, 0.091653599203358041, -0.078021704921633087, -0.028007437334098127, -0.059471662189517972, 0.044317806014943451, -0.15010352690849635, -0.035220202361036804, 0.065609448824258509, -0.010774221866440956, 0.062085532093975201, -0.025109900407086626, -0.083029021128370045, 0.024560803522298266, -0.071342354159293409, -0.12930922937933034, 0.04401182916784202, -0.12570884782625272, -0.062448470648171162, 0.0034922722460838246], [0.05527225143277243, -0.053171660977337595, -0.00090452961133608012, -0.040355039297435925, 0.022596817542833325, 0.064234519421521002, -0.027193551316735849, -0.054251077243625691, 0.045627461025805449, 0.11168229301158338, -0.10039662692948578, -0.1011922135956355, 0.059108884232182551, -0.1215373027020599, 0.086343893085014292, 0.036636810751072661, -0.027971981088770137, -0.097617216223399417, 0.034115806062346439, -0.11929558283563718, 0.059047165847160382, -0.15095783254573533, 0.04549122377024329, -0.054466133227124618, 0.0039125243671125744, 0.068595414514181621, 0.059122282115558832, 0.032504046700333668, -0.11926920463469665, -0.1397112770454334, 0.040878028303623276, -0.13093794781080365, 0.018782651722804945, -0.13870628125402393, 0.07657115386855802, -0.027746465381346199, 0.02910901949519067, 0.025436116135629551, -0.094137461333290609, -0.10664470440454712, -0.083693206190727135, -0.046634247731292676, 0.051454976394798679, 0.034020695874576033, 0.020566824673564084, -0.061828414361545792, -0.23118149493410553, -0.11114058588395069, -0.038973017532223118, -0.018197279948125124, -0.026569951298472408, -0.025332250834812314, -0.065308447187624574, -0.020652874211058964, -0.081746547652362667, 0.038489433182556591, -0.062527342530714194, -0.080551616440723187, 0.028256386735771973, 0.064783026435902127, -0.0048547249681545708, -0.068054040307017297, 0.072303311882518637, -0.13561551344089451, -0.13037583519585738, 0.029913193525854039, -0.052944346714685585, 0.0075466884878705037, -0.10319160726731974, 0.01604036112809067, -0.12085500448397608, 0.10232661062768206, -0.13680430977483116, -0.06856031978192606, -0.069816050726569059, -0.088936336453049325, -0.0022588473738808373, -0.093603841253916589, -0.012892812582617583, -0.14851246703616225, -0.11133857656669521, 0.091568644870489976, -0.17203689987014276, 0.0255852757011076, 0.028927754964227833, -0.15561958478051313, -0.10822886407163269, -0.092679887721119125, -0.070717117510430819, 0.009654366883435038, -0.070897120785768153, -0.065214078076751322, -0.094735182948800511, -0.078708105720710159, 0.045346519720087179, 0.061763223537984815, 0.016353085866932886, -0.08890477650692348, 0.056958152292812238, -0.079210663959464508, 0.044182896144283383, 0.019149058085189935, -0.038302211729764127, -0.12849316305980696, -0.14864143085458578, 0.051423205593516194, 0.020344379528177116, 0.046235943989609285, -0.031975848075014864, -0.00052728462393288045, 0.014679079967701698, 0.010349434027699739, 0.073776772121688386, 0.0018630229534769265, -0.1182972094971638, -0.030427626622071591, -0.009585229229878334, -0.0092955444830219586, -0.0485672841506763, -0.084244595755772089, 0.020150398518842459, 0.011068842802920129, -0.039340648982508233, 0.026551715909040662, -0.018991614386182291, -0.16585006748690578, 0.0051605631395058461, 0.065359351375884001], [-0.097652397601217841, -0.0079304712870282915, -0.097575140602105134, -0.094920505423282078, -0.091056807824317576, 0.048083060280424944, 0.063120354106639104, -0.016699706489194572, 0.10067146960426623, 0.010973864726176437, 0.021406535315552987, -0.024770895982356149, -0.0058009834335085433, -0.037925556040199614, -0.035870202489837327, 0.048992856626119088, -0.10297834979955622, -0.01134039326635603, -0.036925657859385695, -0.062045526551749691, 0.0088343486243707449, -0.013765567646395808, -0.098752628589593452, -0.065261782141187538, -0.0058358403037167481, -0.11345153407097523, 0.078916202694749582, -0.027521020481532193, -0.1265845124687118, -0.080109055079771688, 0.024244490810291904, -0.073940877244886655, -0.017359931890921384, -0.010231066576322313, -0.054252339122754054, -0.07441647971813109, 0.060494878393504536, -0.11412957942393777, -0.078638764882174347, 0.019781606208352856, -0.014475526293298374, -0.0038935980062243273, 0.025604537208184019, -0.050686509259922012, -0.0017322161171094445, 0.020391573610549423, -0.097010008669632164, -0.019296850924865494, -0.013562754807250124, 0.055523902796457109, -0.0049523595110319016, 0.058684923117205037, 0.031947025630467835, 0.069029716042061456, -0.023408946986746035, -0.11018369258558287, -0.076873924367367674, -0.10109757898535515, -0.035924119032323253, -0.02221446218770156, -0.073422568191887097, -0.10384372152532263, -0.0060666203957274456, 0.082269132618443888, -0.068307868292914159, -0.11162825279852981, 0.032132261213752025, -0.096905962200856441, 0.097984320949541112, -0.10032707723652819, 0.00078930291930023498, -0.0015086433600309949, -0.091230537689926505, -0.021261212120056657, -0.030652084642236819, -0.017913366788118647, -0.0049373677587229992, -0.086946133268428233, 0.086275184867655189, -0.097982698949540911, 0.039877627709075159, 0.075649248713282852, -0.1240634033282299, -0.085756573061595981, 0.0041632443278434373, 0.065838278795845584, 0.0063664505000077575, -0.012172202918944816, -0.055803878547747737, -0.060486694854087253, -0.058922389200923631, -0.03918617263164316, 0.063432517758985965, -0.033270199585516899, -0.092092902599217763, 0.061308850253675717, -0.053658467663848498, -0.058280307994597491, -0.079554274884424805, -0.02998965142014259, -0.10444619388150836, -0.038878108105482513, -0.036559699321752064, -0.12248265945834289, -0.12221988871761426, -0.016749661964933028, -0.087350283018684569, 0.00052572559673189361, 0.08692092589268105, 0.098610670009075738, 0.034742550689120175, 0.035444782303377553, -0.014569527984611379, -0.063010449453346343, 0.042146779466803043, 0.034596461583642893, 0.07642962342298433, 0.020343261841661638, -0.0588747400562507, -0.072594990569426601, 0.10448570929299504, -0.056429867642490653, 0.023151601711126971, 0.011293621185543817, 0.044040770862655253, -0.098250430530046701, 0.10276445359868748, -0.12811321667968903], [-0.0068687580169355979, -0.15878354492784225, 0.062824097538422205, -0.001674689345666441, 0.051896551894699133, 0.0039117045708681351, -0.14099602166557565, 0.040983765195095515, 0.11593368155034765, -0.057724044301568453, -0.093157291683768531, 0.013744339406682312, -0.13838089234124354, -0.0018805405258385693, -0.054312590833541917, -0.14912360548530584, 0.060683834260907801, -0.15777199819913765, -0.13264589635999399, -0.05272971055352365, -0.12808851579068187, -0.2356062528317146, 0.050657939575618094, 0.054480922115742486, 0.097411535346698566, 0.038951854503787485, -0.095937778021205053, -0.0051423787264581987, -0.013144764893786189, -0.52230333887073532, -0.061858714996586489, -0.13666699998029444, 0.0019644930427729751, 0.0040889961934490642, -0.11435970909222876, -0.02458561510842901, -0.044459219982558182, 0.073155765378523613, 0.080910536629845681, -0.10879816998938421, -0.09083327408139355, -0.1478628799502808, 0.033000865858906256, -0.058745247585712493, -0.049623552310271046, -0.051424461373816101, -0.30960475131461018, -0.11590444224827362, -0.046642243917199913, -0.16338342524917016, 0.010453200450567333, -0.011175733451181434, 0.059000120345276061, -0.02876503866288628, -0.23890161670969737, -0.17895500168292314, -0.1516526663661967, 0.052923632381650369, -0.14061791646611999, -0.043483273556512533, -0.0050755681795260719, 0.030651111138877619, 0.098317377593881775, -0.069241183059239181, -0.027676389815838649, -0.12824688959177255, 0.086669879836084859, -0.040815883074507571, -0.011441890044100511, 0.046104657396959577, -0.11453869397681957, -0.112990367671924, 0.050528979829295065, -0.19273525740138517, -0.039802102987217314, 0.079908415957202578, -0.069585935413588207, -0.02359666035617233, -0.01426116534356256, -0.15305327702025467, 0.10546049463520459, -0.014449547946830777, -0.1624907422798105, -0.0016470482371346974, 0.10493625545596072, -0.20128630607282832, -0.087529828170625823, 0.0071128982131396234, -0.10141589440792449, -0.075425752285843459, -0.033208176685554522, -0.056751182416014956, -0.017604802733715955, 0.066660168173979753, -0.1219541867380359, -0.061605843541324909, -0.13285295576762349, -0.1309910547276279, -0.097003278631573708, -0.23018678788862162, -0.09681307482344334, 0.0094764259402900248, 0.045423657911770256, -0.20294957411026018, -0.067162884523707916, -0.04465658927057474, -0.10499141391116805, -0.10006875846621201, 0.078591016943806727, -0.0030859942540123475, -0.036991036352516098, 0.065923387212713444, -0.089679144406070943, 0.090635461147773516, -0.21925245560553377, 0.074827941847561946, 0.053843769291088035, -0.090624558085801374, 0.0042008817518574115, -0.15600244718734607, -0.038155939013478454, 0.06924629072252643, 0.10157142797595943, -0.11611955219360395, -0.077560607778774465, -0.26469931020587306, 0.074023426614852422, 0.0051230339618727888], [-0.084038158470897836, -0.023209928125598942, -0.032272015064383888, -0.078488474540688441, -0.016222958124393505, -0.094376734002797183, -0.08855598198724747, 0.023419148776011717, 0.028493734694234468, -0.083642577577446822, -0.097687276808372428, -0.12131270940509709, -0.072742176915545978, -0.12737585091054238, -0.0039389746956952935, -0.093886005185434593, -0.0028116940748695723, -0.040543903039143653, -0.0029140431575250128, 0.053165691722375022, -0.090698976250578253, -0.21936711564167768, 0.029092662259473445, -0.075414965970744388, 0.051887631216442805, -0.087154707633328929, -0.033847526279912818, -0.13135943027330846, -0.1556333399859568, -0.46168403472341768, -0.18618654543889651, -0.044324673927009589, 0.067401157205912166, -0.071304302709901554, -0.09435010383429987, 0.089044499885859399, -0.046269760678236557, -0.03117560385872066, 0.058253331724879259, -0.10287873165280351, -0.13773480750126574, -0.035825067638564682, -0.17195405393685453, -0.032219781213209529, 0.054648991279416782, 0.094690964757649307, -0.16039281331689562, -0.046771896056128748, -0.030570094171099488, -0.13299977721395961, 0.049526563142636156, -0.10311383146556963, -0.086399923592228797, 0.059120138489713411, -0.06745888616677638, -0.14684386026186189, -0.032280421724193945, -0.02506943414738047, -0.083709562714603253, -0.068944585472638667, 0.10993375976374631, -0.04722642088927391, 0.037671381227334891, -0.0092897029761506537, -0.053764458623371855, -0.086915707796134167, 0.0043534042001334428, -0.0017697068918102164, -0.11068994020642858, 0.078754272463787592, 0.039175932030693417, 0.074139054487148373, -0.01652878585261772, -0.10172765365076912, 0.075524751409678889, -0.02140611565197521, -0.029386709264540095, -0.0089625970475314589, -0.02545993876781746, -0.069959974988461404, 0.10333052261361085, -0.058933757560789363, -0.17015319459925654, -0.025555743696692345, -0.015894016539595424, -0.011494018906476255, -0.22847235377613775, 0.025467426573076754, -0.014556162092897623, 0.063534320464692207, 0.094030953713763701, 0.034652322767054544, -0.17185073468171946, 0.11101940265968206, 0.080276036205752813, -0.035872330311483555, -0.1327851982828035, -0.10879490031034703, -0.07713780661974369, -0.14086218831523709, 0.024106680954149015, -0.030846777535349399, -0.10746448404005504, -0.14583435573105075, -0.1132494925974115, -0.024059729546414051, 0.04184370002314055, -0.11874979539784609, -0.06588469833732398, 0.0065013978547242279, 0.092323274356392093, 0.0006161240281718853, -0.12330634264118075, -0.092251302097400179, -0.20595872798642462, 0.059090014576447594, -0.14949123567676659, -0.13174829901332324, -0.09892359558083641, 0.010070145113530622, -0.015187602470499785, 0.088282511363055469, -0.054324372393341286, 0.0042772493887713106, -0.039452094955618425, -0.14693414279526978, -0.049501578595331379, 0.0099208655111248708], [0.10884992320027134, 0.056811490771023744, 0.10719426417866633, -0.03747194152704212, 0.038240759490731059, 0.09789263196784255, 0.038606882274725023, -0.075052327828556337, -0.051442732247025065, 0.10960141800833267, 0.18015660893821703, 0.11745667264271029, -0.039125997610619391, -0.0035945421476257108, -0.086787102602007671, 0.038991218840388683, -0.017186215099504937, 0.082154448987115533, -0.0070389794415230715, -0.034527304025030209, -0.015888889472586119, 0.18373408630622434, 0.011067637677920688, -0.024838978216870908, -0.051068938753679891, -0.07800796127536351, -0.046076792014882469, 0.092459709954322108, 0.078105046539258288, 0.22996972579301486, -0.048810863836458523, 0.083405306124697279, -0.082953344654302708, 0.048820410770967777, 0.011052685093922411, 0.029695405566387098, 0.087481729343939912, -0.053711687122335088, 0.014781194241087826, 0.036668350565033883, 0.019400546177992924, 0.13465787949751731, 0.073031492339000539, 0.035667310564043632, -0.092532111946422427, -0.015863094878199167, 0.10425889581544091, -0.020643116779264087, -0.052637526265448098, 0.1083612082492893, 0.099761943295571254, -0.032585577185124705, -0.096856704294381674, -0.0970672979682176, 0.1110181689060888, 0.088296588672000992, 0.13777017852726661, -0.093737909895255794, 0.060318728213132049, 0.039614337050068095, 0.10435577893606574, -0.065326500135126128, 0.081123615162110821, -0.05130532132395605, 0.082309257766594632, 0.14468071397214091, -0.04381268534403028, 0.020891870568023108, -0.02524644034334711, -0.055414626780355504, -0.011553154878828818, -0.0014257613291685904, -0.033112933075808662, -0.023359405506940299, 0.04406596051251653, -0.07154663313372718, -0.020342166512186316, 0.12329652437058247, -0.088266685763070868, -0.039302297717670867, 0.025459148590529584, 0.11564244779880092, 0.075735999913856794, 0.069600055465640479, -0.011681321687608806, -0.023929934135584946, 0.1492626903323937, 0.10273856837333094, -0.024392750693812939, -0.057697444259897784, -0.048139028059806341, -0.025457701174175118, -0.0042342652793046576, 0.051151295729619836, -0.10849428634980691, -0.012661291337251388, 0.13595265631502987, -0.009140170996799318, -0.027674330698152474, 0.20634154379467654, 0.068573292858355395, 0.020382391857108117, 0.074628180366299618, 0.1290953875616897, 0.10169907849298027, -0.060202755523946265, -0.048632801616395098, 0.027398668048147178, -0.02643935839063976, -0.046508507748466363, -0.010239153559909361, -0.083308596520340686, 0.064967720912054702, -0.079372871484717653, 0.088336239552067583, -0.064176213702049803, -0.051221550835078213, 0.0425076305363455, 0.0021005595975530211, -0.033410427151797609, 0.056304960298095674, -0.022964273449843045, -0.002126009748211144, 0.031979044196399173, 0.042190662985153685, 0.21027773494732763, 0.068006165146776806, 0.021282558725603151], [-0.044782357860584238, -0.22003633731162597, -0.1000135130320257, 0.027254815002165794, 0.077222519122299188, -0.047473522867916271, -0.00528631259519862, -0.12715320310307693, -0.069207432883648265, -0.021226314184593104, -0.20715379847419282, 0.058086213963457714, -0.036404109515742522, 0.038757918281413534, 0.034593847590799115, 0.026900918266048179, -0.076465664671805933, -0.18460656274214218, -0.019163720353999162, 0.048442467434996209, -0.0014300501686096874, -0.11021515042454758, 0.051839227775060052, 0.044715467080298686, -0.010339711500977018, -0.033147686458234231, 0.091446997771826785, 0.034051273197939276, -0.070700552076180284, -0.2722265195421632, -0.19197373159793507, -0.10991410020015178, -0.13391702601586575, -0.21430289185780818, -0.016020532134704123, 1.3402095924988591e-05, -0.092656598081062455, 0.016597475113403724, 0.11046144784922646, -0.0345307318159567, -0.12475370340246979, -0.15929967686745217, -0.14456409794355488, 0.018622919338993203, -0.097596566257266898, -0.039518223761631423, -0.13357161298943629, 0.052418770500270072, 0.029978483119265733, -0.040984368716290749, 0.02520556986054294, -0.024397607431288017, 0.021816824346075511, 0.056132267267509001, -0.032846246143167182, -0.16896927343111359, -0.03972152950483987, 0.016224048359355835, 0.026188333486872401, -0.13385120713187379, 0.072002549337424462, -0.079666899869420493, -0.0070566261254805251, -0.070039001196436065, -0.1009187936450453, -0.039473154785745257, -0.083363906496256121, -0.090323005930170966, -0.10198614930747241, -0.058464397162560071, 0.031683681215678099, 0.031907943736430439, 0.0082948546274685241, -0.016479322329559624, -0.15346965918902511, -0.13527411866836422, -0.030997878093605186, -0.074673769147889202, -0.11653980139487691, -0.033399113043534961, -0.054098174960954419, -0.095083081502245648, -0.096990833016744632, -0.067453500210915077, 0.080321001275598311, -0.12916525027918963, -0.066523861805039136, 0.060138861650458411, 0.097666070565772103, -0.0070377536254709822, -0.060116849189098404, 0.040635941566977203, -0.0012037662459865629, 0.0073346978822791415, -0.073860962484089979, -0.1330413607993467, -0.15158796060342683, -0.12557449396377332, -0.029211499781758368, -0.2210972781303652, -0.081588975087609025, -0.034361399727674255, -0.097622369378723914, -0.15804443847226404, -0.15524603917065086, -0.10419316424354812, -0.0019605155761566609, 0.011600117882482969, 0.0091670800544723929, 0.054614841533769762, 0.034472085877921749, 0.015848965918604976, -0.092311997949783023, -0.037434138146475296, -0.057728023142478005, 0.066123622301806573, -0.064574735906115649, 0.0029243881472685337, -0.084771747578242823, -0.081583843207337414, 0.0077247978953196572, -0.091656295731731646, -0.040369295841376718, 0.054618067328046298, 0.039006184427662793, -0.098715709808358754, -0.014178608594161193, -0.04639738845827085], [-0.13777733454365473, -0.048392093851214679, -0.05695744258586162, -0.14893082947743419, 0.020864904385013368, 0.064050411787409667, 0.064761901355662704, -0.12694188735934681, 0.073163302892754217, 0.098958400564168977, -0.12863750017098838, 0.094812341879001588, -0.011915116390207595, 0.035488840240769627, 0.046453790975788369, 0.037753796115258212, 0.090419485672625546, 0.032362366812972283, -0.10707617452399314, -0.05567771933262932, -0.14609582375476513, -0.07763188100862084, -0.10093552099561415, 0.036242212717490632, 0.053111045312173512, -0.00055669560499374895, -0.092468537740583681, -0.10464275302584942, 0.0045229048008933051, -0.27687092875132857, 0.0017703936096001031, 0.025184779014838048, -0.094284971927416611, -0.014262928820926342, 0.051395026755739918, 0.027322213951063344, -0.036932078224505532, 0.031501672455303824, 0.048907925391295314, -0.095442379667630806, -0.030340639527934102, -0.11124947820262857, -0.056728352269004127, -0.040934880194284491, 0.019015605857151643, 0.083368081243790818, -0.088872469151198369, -0.10752958512347235, -0.021788826958316656, -0.15082908794738081, -0.069809563455236812, -0.072011196866513791, 0.048823838523475827, -0.031974602904618614, 0.0044539388185177442, -0.15511414537743443, -0.073256063388387013, -0.042278740662993593, -0.04634043640996427, -0.034239945317074034, -0.0215079350688923, -0.011481440317887739, -0.058153437290457174, -0.064746617479468388, -0.16461488787830084, 0.011648668337996319, -0.039132830439525396, 0.023598363362877007, 0.002891529756502309, -0.0050656139382293103, -0.039924637523684171, 0.078671854105736849, -0.0080956368141993258, -0.0031445235588604438, -0.12226534895379296, -0.010066659764844169, -0.059542024227520772, 0.038505171205028159, 0.0021793044168633155, 0.058512763270271981, 0.0071677059007419532, -0.0083813402632870199, -0.10113782114941858, -0.04854830906575313, -0.10074441602183724, 0.01313966310355876, -0.10249295122755843, -0.022911563317251957, -0.11435803740570803, -0.05190503831872454, -0.076805514857624047, 0.029998003217102776, 0.063270309909711483, 0.010682866644491642, -0.022494500416756942, -0.11784849539739418, -0.097046425292892785, 0.058146253356638464, 0.003486303876391652, -0.022769207815771877, -0.10784499707738432, 0.019842779361256165, 0.0092497795545694768, -0.059614454563296108, -0.002418060939731547, 0.086937164851819404, -0.1117626327361593, -0.078526191342381091, -0.081001550526751898, 0.092683608322476366, 0.08237704627878524, 0.10334187077082219, -0.010237104674950905, 0.099515292299898306, -0.022161060963587872, -0.044759156618996689, -0.065313016468711321, -0.075385016995487678, -0.11635901227333503, -0.096048224133256754, -0.048457394427862406, -0.077348139582659986, -0.055521920690536304, -0.0043785393640981612, -0.0661440445505911, -0.079109936036848474, 0.057425870957747101, 0.0099944669081829633], [-0.10502755084859793, -0.098559522183899365, -0.088195608674533105, -0.0055168580584254116, -0.091303526400697527, 0.060323930058804501, 0.0096453872853836681, -0.12067600370040941, -0.081933179332154729, -0.026994590506202461, -0.11430284464233896, -0.025156980518768884, -0.098001950930317897, 0.068543827206769117, 0.024590511638392737, 0.033254007481161238, 0.063933835056368307, -0.048844711953400184, -0.056234661619319636, -0.046633805221968791, -0.056594207555403335, -0.19524449451375947, 0.020203400197122471, 0.049625580910612727, -0.036996378212331177, -0.10556946408982969, 0.047874251425883994, -0.052119575401443692, -0.146860216608238, -0.23861471717597452, 0.041681288263331256, -0.12264379395416261, -0.13760398757425549, -0.101698521397141, 0.070840105999923422, -0.03680409649081981, -0.035076217232112045, -0.079703052963376111, -0.01898857772311836, 0.064677504939446864, -0.065004055024111954, -0.039272424209753368, 0.047156797252636072, -0.035540992023788631, 0.057258134840134554, -0.056277415917480568, -0.09743401028907088, 0.059320908264238692, 0.091911740705397219, -0.11281744847181646, -0.070032843197365538, -0.038465682596977344, 0.034364460029817162, -0.0037944993755109108, -0.07207942518194517, 0.015902681158686174, 0.041731436522900955, -0.10943343526901601, 0.042660651109106884, 0.027208071073655648, 0.058448767157573162, 0.0236154373104632, -0.073440551830164957, -0.1201162010161141, -0.16310347236700024, -0.17184151689953395, -0.010974321328183517, 0.071070057035479445, -0.08704505770241136, 0.079974118407969794, 0.054020860034241037, 0.022503511193369286, 0.075593401915594258, -0.044356797181726179, -0.14413090469930245, 0.044142251143103918, 0.082647810774297045, -0.039854180763759454, -0.10801298261256254, 0.0049624315049980952, 0.08712140201717998, 0.054423117304173721, -0.13424783605408691, 0.079185601886305301, -0.02325422217677495, -0.061865844117315508, -0.085321735445841373, -0.078090495575210125, -0.084948864305397553, -0.0099117178081439793, 0.0069826664025648792, -0.093194115795600149, -0.010478264213045015, -0.047146094784359008, -0.11465108461289102, -0.086495974455660068, 0.030378639927335534, -0.12856604622775727, 0.011521881798686245, 0.033965970083777795, 0.028553705106470886, -0.065483802743999661, 0.098009672608875706, -0.14292566124924985, 0.063087601038878435, -0.070493598466083163, -0.0055462641846540702, 0.00023427292643909609, 0.015027180724393402, -0.051922363759164591, 0.003535614804253775, -0.11803010878404747, -0.060379890915308425, 0.011745029935581398, 0.00992565416208375, -0.069289661363796232, 0.056721532366355104, 0.043708657241582058, 0.025435902805334271, 0.0053678165682228508, -0.086551698453768422, -0.016682037388492596, -0.013567941643116171, -0.035958301251505759, -0.0046530583370547694, -0.019342216560698216, -0.060707948812819955, -0.12920527365990633], [-0.078444520440999171, -0.11459305226839479, 0.03059530111265478, -0.076739964748111705, 0.06418359858051205, -0.026256433980769239, 0.00030368432185412845, -0.072465123153869521, -0.026094300468129307, -0.076258975173010723, -0.055373783871906321, 0.014635890415099708, -0.085469966170382522, 0.0068579865789501438, -0.067736246932253066, -0.097099740329085221, -0.014119317851890703, -0.12792522410286833, -0.046540934147897513, -0.01052874967684367, -0.04834150980654995, -0.1006248452660586, -0.11050042706151457, 0.09067602003972193, -0.076337352723478052, 0.071813061704660189, -0.021696397855550394, 0.060142179477682418, -0.09336581911167656, -0.059848365222414296, -0.12806430345820813, 0.074914368385057828, -0.080657917164723134, -0.058425808617190177, 0.051474913931725562, -0.0015258376582035008, -0.030346231381972406, 0.057307865139364263, 0.087623711457410811, -0.11107423513232716, 0.037137959902769774, -0.075657559442657632, -0.092182947286445313, 0.070129758242955559, 0.020279373091313994, -0.024377511768153493, -0.082622562122067256, 0.10449835992573431, 0.083324541654632198, -0.089784994307311031, -0.08485392214687755, -0.079072505052756079, -0.013276143847993175, -0.10797156686658763, -0.13291698661513474, -0.072532499288978536, 0.07364094306414648, -0.028852009096608532, -0.084214262646296667, -0.13167181296065891, 0.067347754287541028, -0.074870483549488803, 0.03219303893135235, 0.0099278491682598148, -0.01970249946638921, 0.037857384985419108, 0.056897958484113095, -0.043866812943639387, 0.04634938580676061, -0.0030381461782269499, 0.070467954827647714, -0.10618342765091274, -0.021246355441588732, 0.088573473843370706, -0.056884061020990528, -0.028880705646943179, 0.10096064933755543, -0.0063428153156838687, -0.1051339808230759, 0.012276854819772866, 0.07216103276887216, -0.11372021215154662, -0.038712372866009169, -0.020356746056512325, -0.081431083994845083, 0.046400483672715473, -0.10041518596352911, -0.061593178355176408, 0.05659990397899714, -0.00060928522229730089, -0.045671355071798002, -0.035109150407995435, -0.093581009146412361, 0.073229805117067032, 0.023385291351213939, -0.050885076644556555, -0.015356171506826451, 0.05809538355632806, -0.10375417798335135, -0.13704195710656539, 0.020878414714836115, 0.049421892183696504, 0.085187224307894369, -0.057247966862802827, -0.097958195503402054, 0.029027921236754343, -0.0092002568551537035, -0.053180037051465755, 0.073305362871049329, 0.042968183207282032, 0.060794187798729256, -0.070668076619258224, 0.016935200148960803, -0.0097009604608787083, 0.014827055316711411, -0.028271986311833055, -0.11566799644436949, 0.0051435452600284296, -0.01181516385979863, -0.12489802918854635, 0.071580887671786955, 0.10838530977314763, -0.064597774585317541, -0.084075879699210113, -0.0028757611280055494, 0.061684759253208897, 0.028351818569158742, 0.090628130749281707], [-0.14958189375074452, -0.025360753680245811, 0.11030119948895924, -0.069398679650500533, 2.9428499363708956e-05, -0.026566194398418449, -0.023896869475594766, -0.056187531328820678, -0.068548471549491882, 0.064022704629149302, -0.23916011731236331, -0.13249093038977203, -0.0040728480305358469, -0.16077383678537319, -0.0056684010449805713, -0.07525607855811596, 0.080423675209806714, -0.055296594731786636, -0.098020295099404964, 0.023511839567391838, -0.024516627581490414, -0.16822559561817357, -0.01893227094007972, -0.020778725603148456, -0.085844672888122558, -0.03856772460805883, -0.088415689888751287, -0.0012139135071599207, -0.029566615275746545, -0.45899372001921834, -0.036930803526309321, -0.1152019058605709, -0.14844612514579666, -0.19185433293823967, -0.01601417955798095, -0.074302058757502357, -0.0094708755317625352, 0.068608112207332483, 0.099948136040309152, -0.059791212671623073, -0.065565403729015148, -0.089318646963720619, -0.1150070576072753, -0.060973691828987063, -0.055829575476104884, 0.0056986477130440893, -0.31203324463737936, 0.09638072067009619, 0.075192490409993526, -0.14476059096466148, -0.044361376388484509, -0.024195514498627235, -0.012495990917090418, -0.082480164987840429, -0.07704629827969052, -0.077055405918711684, -0.070185900872337725, -0.10041963228810627, -0.096552141306574704, -0.097250653379702887, 0.051101841609082259, 0.0075705189578654693, -0.012949215439640518, 0.0096276796658573277, -0.17758562686802978, -0.11427476696327385, 0.087961020522166936, -0.02021237005091342, -0.071047964720082429, 0.092802205027167725, -0.033828802928582903, 0.021060476909272628, -0.0077417879914473513, -0.092733291519182831, -0.13490898046877725, -0.056102107814275985, -0.028517750794798166, -0.081210740093983963, -0.10081245979368339, -0.19371188536571216, 0.085796892741654418, -0.1276012916342609, -0.22029787932000056, -0.011034071911699764, -0.10562255478325132, -0.13959851279100929, -0.048318639381475688, -0.08135900854454392, 0.037415246567428298, -0.13174583648791788, -0.06443547532056014, -0.11295847379925775, -0.17286471089266242, -0.015259300214302038, -0.080760410649173955, -0.039686271040542252, -0.040388315775056575, -0.13296975202338823, -0.15306334252865197, -0.064585091535916295, -0.047053541219754559, -0.037439547197283235, -0.11340290491619952, -0.20597901359166676, -0.042766254935457569, -0.018994043643891012, -0.003885255564901539, -0.029709174847100162, -0.11340758229081531, 0.047747342767018933, 0.074082716634724044, 0.056938742957427402, -0.03367576125010624, -0.0390876448096283, -0.1572373216461882, -0.057205274029731898, 0.054125048231423181, -0.055168650216860682, -0.061392471532137963, -0.019988750352722098, -0.11728789269618439, -0.049506677323851528, -0.038869419571969613, -0.010846967110748278, 0.018055783031754952, -0.19981452653863144, 0.11381720450331181, -0.012081270352301377], [-0.092296864973758067, -0.16849903837196056, 0.063142337211092567, -0.067804916728563577, -0.012686419821756759, -0.017490861394877141, -0.18157828839982113, 0.011144376128812148, -0.063316129384836287, -0.08784384066278117, -0.053276870817457307, 0.051722698104430559, -0.17289511610248015, -0.099157361984893042, -0.040785255948134279, -0.084104079331762255, -0.10091781488702777, -0.17008896145143462, 0.035901983643505025, -0.14253171826302824, -0.056483750338932853, -0.080276585402707185, 0.02174385575882393, -0.064834283627088041, -0.055684752907677909, -0.087556660261147237, 0.072406244861176944, -0.0088864011368539244, -0.0032866743470762569, -0.36780630772147965, -0.098947003632902805, -0.12990509229141889, -0.004188630405444857, -0.081607803361019207, 0.0037566779734098878, -0.053531542560176906, 0.016474347578394093, -0.06566446379088145, -0.025780901565388398, 0.047106302656457696, -0.26222469592996889, -0.10989851541172359, -0.061080833097868617, -0.059952460348741105, -0.097998260809028834, -0.047307124188458463, -0.15188234418025601, -0.0031376840637367524, 0.027433636489915491, -0.11078080812521028, -0.060396562960689633, -0.044179279155609888, 0.019276824403872711, 0.02501181483760016, -0.20154424808199151, -0.016880544064478312, -0.13003305123380407, -0.065005870552550513, -0.15429293878604725, -0.1833299022281368, -0.053702596801971446, -0.063190635997296116, -0.10343031506158595, -0.15159162084940048, -0.16697874530541762, -0.15040466109695066, -0.030019863382548015, -0.036041905542031336, -0.056871479885165457, 0.021979136212418877, 0.030132888051878838, -0.10098681073796326, -0.075910644791853013, -0.13493648672938449, 0.021079382051277986, 0.050020167260943334, -0.034072835079490063, -0.045779839131632166, 0.014503399703571415, -0.037577642269565781, 0.055001317492976896, 0.014098566807635993, -0.24039325789615401, -0.13613296803988578, -0.012083180598890552, -0.040013185458773332, -0.1275712618568543, 0.062619094850732263, 0.0016899223053336719, -0.1176146900746715, -0.04176020955862194, -0.072402968510911506, 0.034533238029906571, 0.057280239076132354, 0.093783962731530071, -0.034572421437666152, -0.10901895784358333, -0.0027210682560011405, -0.047853919832232979, -0.22543413723189223, -0.16448166889088101, 0.030980692135249396, 0.0029914144853959899, -0.0080773358998462406, -0.20738422379752688, -0.0045582914857779256, 0.015711764519219421, -0.057315753419279428, -0.11643576589290937, -0.021344030338422762, -0.04379187437391787, 0.10434024352136186, -0.096071009511611363, -0.022390089340662823, -0.12819738253262358, -0.1100032335394934, -0.0045238245707539797, -0.0031668459668810307, -0.077493052717416383, -0.0036630904062946645, -0.1089602006988397, -0.078427895914441451, -0.04301007592432704, -0.099894228077897551, 0.075252818373835392, -0.22369787133311131, 0.058164450365751096, -0.066739940074343043], [0.14101637954085239, 0.097819785135995319, 0.10367294017011174, 0.080800458015048482, 0.10047135116908251, -0.066834834105243116, 0.10715243861506343, -0.0011789595534660226, -0.044770305700239252, 0.11111146790346905, 0.060980050133727683, -0.08110813447410295, -0.005685229919229832, -0.00831813868575507, -0.0014638412129596948, 0.083246582264296168, -0.023062755551224529, 0.12668500598143259, 0.11765807510731138, 0.03627486278947599, -0.018918480683026102, 0.1172892818905769, -0.066636479227775755, 0.0065601399187072982, -0.024247084854837116, 0.08340610684929585, -0.002298000976907947, 0.14038626024126266, 0.089808503307738555, 0.32738677586202319, 0.11211876025820003, 0.099717585326384278, -0.053038498141245782, 0.032522999718001995, -0.012816305110991638, 0.010186194615585543, -0.030105606339696889, -0.029890160429980828, -0.012058088891252039, -0.017885560237453968, 0.1315389994760886, 0.11740931996793037, 0.04215540571121066, 0.054141475247603786, -0.019844921735604548, 0.020834000673048695, 0.18316407039254909, -0.08189801848138506, -0.058443779363905782, 0.13128838040587362, 0.086713382702949274, 0.079017344579475388, -0.091643045975746781, -0.035309563825635479, 0.036273853969149145, -0.010247473023750677, 0.068485955372452473, -0.096198584233150988, 0.062533702233817254, -0.020393658385046507, -0.10801171387192036, 0.051997689441055511, 0.062164481768744936, 0.002988451067370038, -0.042656036357520286, 0.038340959454232847, 0.053162397481141307, -0.044798717823405831, 0.013258708613553619, 0.031931757249045144, 0.074519617882264869, 0.0030049770311406008, 0.14882853895632292, 0.1159756424582887, -0.053995160954029273, 0.10055721765746087, 0.098041760756090932, -0.082898975976587852, -0.0044788687233082705, 0.061797669754414461, -0.10729931075266469, -0.077643702409415274, 0.12232407913217515, -0.067596789488586148, 0.012302973269284432, 0.047006698827981613, 0.10080049629858304, -0.060897968989320095, 0.10289828440445878, -0.028138783044748837, -0.06329577504909531, 0.028428651404898087, 0.029692103372380863, 0.11484792640978898, 0.035737383233928902, -0.037925070893335119, -0.024198015139734842, 0.024936023550361255, -0.0088301940262887416, 0.03439888749079939, 0.045257140947249745, 0.081936545243697687, -0.013808658508085847, -0.047120250769186446, -0.035256198077544668, -0.11319283575687318, 0.036713458179405772, 0.12787352138498501, 0.014217032694635784, 0.085417674848197914, 0.039879221017154853, -0.022639197544649981, 0.033882235028377984, -0.10821418236524263, 0.089914161884808025, 0.024045503554399057, -0.083268661348798359, -0.016844730705876734, 0.080726840041430575, 0.029896932422400928, 0.017077009629944399, -0.024734886053112942, -0.088559024574008105, -0.050140117170703838, -0.052495852979092816, 0.094907573536688536, -0.013715369593153608, 0.14249505110396046], [-0.15286699638533485, -0.19495240671440661, 0.087174299254280732, -0.078368667089253427, -0.047243136295965611, -0.047079696185115948, -0.14001268157960245, -0.023869503852996649, -0.038126735485370329, -0.016917071492017186, -0.2359567571460871, 0.074567901808577225, -0.083374452812842004, -0.13675239805804057, 0.029712798122836382, -0.1044851454875597, 0.0085517839175816845, -0.062175538706062364, 0.050134989460039761, 0.06887610993640772, -0.07355792307636197, -0.16468840261155895, -0.1366373079155401, -0.019688982939178788, -0.047924891385270736, 0.047831728656260002, -0.02621140150584178, -0.082655181428819127, -0.026345653567640043, -0.26306005808625743, -0.051426027477228763, -0.10922299008444358, -0.099492734683460149, -0.13458420258667425, -0.045784635636738194, -0.028146572888519392, -0.12665842768419586, -0.025817234723643605, -0.10979030281858534, -0.037862616559575818, -0.17731608062254919, -0.086397981142111502, -0.011267878531310112, 0.041296349278169407, -0.12323298230067163, -0.027167902891625711, -0.17900841358775232, -0.078578917135362664, 0.043682631310185925, -0.028898655578377744, -0.038048603176865883, -0.05899407815548291, -0.033280443126527157, 0.076126857040080584, -0.092248583619904276, -0.0018632363855161382, -0.042319213396167087, -0.067033206909428003, 0.025172821822164907, -0.15673857105524738, 0.0084046109331672794, -0.10370275948086741, -0.10877252357344075, -0.064145784646118073, -0.056271453779111996, -0.039620984343751782, 0.019093524733092768, -0.10278708451771718, -0.077963809763568509, 0.098862239237690705, -0.037778390464471977, -0.080469072712871001, 0.062464515498971009, -0.139254396868977, 0.021429144659290193, 0.0099872762538094524, -0.054584965421476866, 0.077508071809244516, -0.12786421793395492, -0.021199489317758894, -0.034107602274666887, 0.078501721281034359, -0.23598599954297156, 0.026357593116472386, 0.034775155551615415, -0.10556127146732092, -0.0043511167243155055, 0.075757981744212124, 0.071486899475557281, 0.016031495115656075, 0.081319709953522862, -0.00688695008348, 0.040876182163600172, -0.076654612242367276, 0.0083707915803106301, -0.016916181983380772, 0.063530581418195634, -0.082206759477057315, 0.023866947283666833, -0.15286124471817469, -0.0035156612425637315, 0.047797949572968339, 0.03350288375687295, -0.02692592449055083, -0.1328793306777532, 0.070339945186950539, -0.011073734814430121, -0.068930507277080597, -0.095066921386077682, -0.062367168883521173, 0.10043289182685704, 0.080312875008766743, -0.023413154111363979, -0.068011576812594704, -0.11014291770837256, -0.084500570393525209, 0.0036693686091965011, -0.067340271406875832, -0.13614237542914351, 0.0015886727671544361, -0.060691279661050895, -0.076467845830356429, -0.074143240665639057, 0.020352625553632805, 0.019652788207386616, -0.17090281757727829, -0.017753236681518618, -0.13262270492921233], [0.054556931603766887, -0.082556213569165024, -0.087053130870485329, -0.063596893204917224, 0.06513051679644255, 0.0019057008465710407, -0.074970664762515848, -0.088951265650044381, -0.093395600786815469, -0.038695674300106106, -0.068367067009487817, 0.080160782262123434, -0.12446750023077617, 0.019957436659931192, -0.026743720281476389, -0.01551629001371445, -0.098537103857690919, -0.035241687637986789, -0.1433044906345744, -0.066462088577002781, -0.048130855761719236, 0.0089040770025785292, -0.021294100293155403, -0.11077312416661407, -0.057637716604234328, 0.073151195762515248, -0.10714134302289922, -0.11615704126260198, -0.073167862252017477, -0.19076256507303496, -0.05034267947873218, 0.059157385676569287, -0.079152880031159861, -0.064331489382600873, 0.083385918508275897, 0.013545309395109255, -0.096180536555217661, -0.082860758327150938, 0.045549168256049592, -0.065485110334229935, -0.16316727891582236, -0.089569041004750147, -0.066452204105261037, 0.026869932637938129, 0.066897423299312392, 0.014373074531742044, -0.143230633727539, -0.04643059400985558, -0.028322546382432288, 0.017118286348974047, -0.018833560038589624, 0.0082084375555523652, 0.0072174998086773651, 0.0063322719907522385, 0.029414165755334589, 0.033166536033109491, -0.096311395498916375, 0.034504043528328199, -0.090731241774176616, 0.064098052223786575, 0.12370100591796043, 0.10056479142825239, 0.0071399469969546797, -0.10437529482940394, -0.092874642937122581, 0.011338104260901342, -0.029525704637054659, 0.037449372496065031, 0.073965479441388302, 0.01436369754036074, -0.068899724613044902, 0.00060756006290115189, 0.010523379423565724, -0.0398128402467611, -0.12444102738937841, -0.091428445408572839, -0.10933832315115842, 0.088623759392728305, 0.00391301357993744, -0.11348687133353205, -0.1006514879544818, -0.062730511852369081, -0.1802490514321573, -0.14325687663835407, 0.013994747047265832, 0.028142403667095233, -0.021656085532749485, 0.085118118660346284, -0.066599947514128247, -0.054739623229200611, 0.063757752994709899, -0.10412360598839103, -0.00083705070867746653, -0.1027499221547786, 0.068652050508831511, 0.037451732199477686, -0.11240021223529074, 0.015495511691586911, -0.13848768923617, -0.0088558819109092433, -0.097951926189376065, -0.0081666839198407462, 0.091568796640862829, -0.044058939704032581, -0.15666720525260219, 0.065004662061796392, -0.0016491199554595759, -0.10267135719966686, -0.070462989966529568, -0.071577393733155803, -0.072907494411576637, -0.013260183660660681, 0.067409505749452703, -0.083766560198484635, -0.040153048387246176, 0.055046562708921103, 0.018627797626765787, -0.0063497783493893893, 0.053978344480351291, -0.14201331061399883, -0.12544917414333082, -0.083837362116101766, 0.083115916188826203, -0.02751987998372131, 0.016857820523341092, -0.033850244165861534, -0.045921658412210561, 0.037119096231820088], [-0.031138113016408876, 0.050849684567610284, -0.09759449902567767, -0.072129643950339398, -0.093962632982475813, 0.080995557362559673, -0.018754672900035171, -0.099269612007483757, -0.034172123130671757, -0.019714240132406604, -0.019102980717363195, 0.0023283924526359993, -0.066155543028920821, 0.001016352217027572, 0.072520003435468369, -0.051841204509291861, -0.052898859784923709, -0.1438608831769386, -0.072888765844275755, 0.0019670878050530032, -0.10344848258531975, -0.12551087990115334, -0.0092751915777782943, -0.1007573728589522, 0.059520674205838307, 0.0057831724582629029, 0.045940152769165604, -0.0066012520620335521, -0.084845777963058824, -0.13020189885718803, -0.14186495824755074, -0.13981034578617388, 0.016595673758656664, -0.0070658653375680353, 0.080829915428180951, -0.065549237070182273, -0.048203094289586378, -0.035510813828750321, 0.023871718734717464, 0.030841989378128279, -0.049359466931797415, -0.0067438421720364414, -0.032250604807940488, 0.059794640236150186, -0.11353712271465055, -0.039547733022237755, -0.065791655778609001, -0.083051605101797529, 0.082945553253104737, -0.1336952421909591, -0.017413735948708344, 0.048216325307517474, 0.031638553108437703, 0.07392575802634696, -0.0069137254974448873, -0.15999059830367138, -0.0023437684805953946, -0.11072214047482273, 0.031832266840486005, -0.030870143868876671, 0.0007387497566363712, 0.041004001205263679, -0.10983805174848102, 0.037339010889482951, -0.059122099228711165, 0.020845350126342706, 0.066410086179944081, -0.033121392474319833, -0.066358903011881507, 0.060308556217818589, 0.02902092273972208, -0.046729089353114109, -0.11516106434786823, 0.038691472508954029, -0.098100303027540109, -0.10137786239063939, -0.077930070902279991, -0.062149370884711196, -0.062882600391819046, 0.046726288090913053, -0.10536723495162567, -0.032293122622636956, -0.0017003221956574908, -0.09562153071409582, 0.021958556231349638, -0.0406659657793682, -0.038782125517577502, -0.095222689555125278, 0.038628294583611951, -0.12494376728118817, 0.046588354492157202, -0.059820102884364734, -0.12633852200966758, -0.0076429006724407136, -0.016140250788024238, 0.025505057410426728, -0.11732073379353368, -0.11337776880107733, -0.068343545804843822, -0.0019640383663245991, -0.069409371773800285, 0.079505446882888797, -0.035585805232601721, -0.13114335060888019, -0.091586059029288389, -0.0359917306945804, -0.051714441020185693, 0.015217747514158079, -0.11286805960658219, -0.039641799203866818, -0.069164543058418709, 0.087632072759272581, 0.070108889582002801, -0.031272586019952087, -0.19493596928607629, 0.052795709154904204, -0.013286447860955387, -0.091490560439894897, 0.084913339868399093, -0.054587054148418503, 0.047229956354138986, 0.036958154191762363, -0.072450797456117821, 0.08143825134283067, -0.04984240367956063, 0.0088048239747661409, -0.11295560610823588, 0.017412190262390274], [-0.025651298997632081, 0.083487145085417838, -0.0098180239733379054, -0.062376575736729792, 0.0089963993041274858, -0.025499775136482085, -0.12818974317705545, 0.033248942412509724, 0.021724726732694814, 0.06494783830151557, -0.041048847327143409, 0.085859224505159148, 0.0405555049212439, -0.014737138828295773, 0.10398120684304081, -0.042483710189231846, 0.092985735307530112, -0.067717251432173262, -0.12216224024570979, -0.044752338060299622, 0.003673958297645807, 0.067723141953331761, 0.055174864612244266, -0.025424784713016416, 0.061744638229801765, 0.0068630149385623595, 0.039216976314408257, 0.091464952532250982, 0.057122274675069681, -0.16394473125897824, 0.080045744018775566, 0.092947167723172811, -0.091814636725104121, -0.014195865268007882, 0.02120875516386804, -0.013582760926304284, 0.062345885612774661, 0.028806210857141485, -0.094836549505971951, -0.095415697901218705, -0.10269678000999287, -0.031110631815625317, -0.036885111802770938, -0.056215685383950262, -0.079347545825908722, -0.059956517822489092, -0.10837297588398739, -0.037818662728671869, 0.080202619705033285, -0.12074670430962083, -0.10140517603329258, -0.074903847549909378, 0.061487276935678015, -0.084229282045258411, -0.024449378192567039, 0.0087961886310822367, -0.062784462338503155, 0.026522297438155651, -0.11961540031674919, -0.024017776037503727, -0.073330314729443152, 0.010109655503927254, 0.10461868830375111, -0.0086167333969619699, 0.055070272025685631, -0.02893504666608181, 0.051978790642716335, 0.044114131895439668, -0.028734516875553243, -0.001952709752305997, -0.011317540900948912, 0.0892930246735954, -0.070121969899837558, 0.047984084910527657, 0.03825155515627051, -0.041295919951748007, -0.053914264446515599, -0.052240134982657727, -0.033218255338291397, 0.074303745478482924, 0.09437695900038745, 0.054842087741702059, -0.15465383842344574, -0.013265266816572734, 0.09702002751875248, 0.004278598435912712, 0.067501590065265279, 0.043058346715745002, 0.098165741898511572, 0.071082131296537066, -0.015901092576312659, 0.044646740338296208, 0.071383219685787647, 0.048235408093026066, 0.098322490938483664, 0.081684757621766801, -0.0099264035994022608, -0.085699368416246466, 0.091067200946585089, -0.018914351439829172, 0.0016891957201277865, 0.016835333393148282, -0.018142739820024775, -0.013488732586248168, -0.036667671246564469, 0.040188144447779801, -0.061562309114551558, -0.021816125198692349, 0.093054115202031121, 0.016980006935102918, 0.062445956600071136, 0.082451300430400332, 0.086228914032717138, 0.047603958950796596, -0.13029103102774067, 0.0066672886764884984, -0.077376853781152333, 0.021601575777898872, 0.05269762463648401, 0.0095051345338856338, -0.023464367341169887, 0.093399702861658038, -0.088608197856869048, 0.070279717011572151, 0.054633907029685069, -0.12363964542624979, -0.001675068839201091, -0.043295246004671717], [0.01400453833476417, -0.1976340413700324, -0.023248883538144957, -0.0093367581403692931, 0.039576000226983356, -0.1129044318050369, -0.090785269322147449, -0.10776473701109757, 0.036214023313059715, -0.10399359333128928, -0.21380545899242595, 0.01295506355239345, -0.18936643218528426, -0.0064852437309063614, 0.019168997208329718, -0.061849257112599761, -0.070279749426106181, -0.015005134233791021, 0.015643829783132585, -0.025510013471552566, -0.13128650298095143, -0.061245378969699879, -0.090439888949505373, 0.014669218054710291, -0.097115785236310898, 0.0020875065453106749, -0.034241592204263309, -0.15054059045509322, 0.022095317004054291, -0.37757603312053589, -0.0070314679987392437, -0.11459135361649676, 0.035162623244115905, -0.042627143552795899, 0.082757879919492239, -0.090610964216658554, -0.12891217234040639, 0.018995165460781886, 0.076446447775779094, -0.00027637207768027583, -0.20935911151611508, 0.0059192654372044193, -0.13132741746567911, 0.071142899331335913, -0.086166964522284728, -0.028626832376106626, -0.28565783000704681, -0.087124931151634666, -0.0069188505291850871, -0.053741128692069824, -0.06894768971834643, -0.030787911447129099, 0.00097693369343722076, 0.086873198982846664, -0.10608763365008188, -0.077675172626161013, -0.043344802527261618, 0.043341530925813533, -0.036677424930172182, -0.077513519751727808, 0.078857423808836771, 0.046284493980904791, -0.059752190694682225, 0.040454465740675488, -0.019515854188182871, -0.16141237307074049, 0.0088423175988921882, -0.035901587123188854, 0.00049486679773672049, 0.048780466144614322, -0.11249461511790265, -0.089245656758054639, 0.0031362612965892263, -0.061658876178637891, 0.0085205793475211199, -0.017277077674219429, -0.031943638943596087, -0.10247882161370803, -0.058980173198111281, -0.063332404473003312, -0.10717595576805572, -0.042388199705730621, -0.16656341885302628, -0.089123289017625354, -0.10328169358008486, -0.12697419317157568, -0.14473762150480254, -0.10313681599157971, -0.006770846492179264, 0.070934632106241249, 0.039680230207408893, 0.065898414266705688, -0.13560973914249977, -0.033884440650358671, -0.02556884944923957, -0.079274077435335294, 0.04996544652133221, -0.097411069180267901, -0.076771730302318111, -0.27632192625334778, -0.14817679494084746, -0.042040811786238273, 0.032898312592968236, 0.0007070624002212323, -0.18905144343135244, -0.063743819880477587, 0.023674987246212073, -0.031121181521750581, -0.071465107406940578, 0.10497553485279391, -0.053074136842571347, -0.087648393710924727, -0.031738145343162008, -0.11234871809166203, -0.21950250881706992, 0.049695134217178111, -0.080441665323356629, 0.061796041772341014, -0.065268074477693144, -0.054368661506280627, -0.026169702397750214, -0.080462562082565248, -0.052261238038124207, 0.082691094848498653, 0.11780994848071938, -0.063800156464938779, -0.02177518571413958, -0.080580141007414924], [-0.034563920190543752, -0.089802730084046961, 0.0024654873297840912, -0.15271609636952915, -0.079846381825847385, -0.052699735051725927, -0.15286230724620176, 0.054941757005717379, 0.10233188548483106, -0.03484991377526838, -0.26437717740300515, 0.020455158306399428, 0.016230011875341687, -0.16519750519264029, 0.056625933432605906, -0.00067769449005511211, 0.0040196542619529568, -0.11876030336552919, -0.16969187571789621, -0.13595110633889385, 0.0423223504186497, -0.16149045649975835, -0.1001408246833027, -0.025165975493108457, 0.030339234196720358, -0.12135603751216559, -0.082195432436395391, -0.061915026037902138, -0.10392085398162693, -0.37418303930914859, -0.0065330493624082544, -0.092534940770003293, -0.034445734745126418, -0.19222429974933156, -0.11537547676284436, 0.063566743034804848, 0.060723433416927222, -0.1232465929287436, -0.028699706332125166, -0.035049639301826044, -0.11041569332337503, -0.039494824060416961, -0.17036287662619096, 0.02318957320023099, -0.011854687187933737, 0.052934306539173616, -0.16010197317500868, 0.019621099362792882, -0.046383856546534687, -0.075291814937648041, -0.070760548549577598, -0.076787822600652214, -0.032010311554349836, 0.088264870230605821, -0.14219232096007023, -0.14440287465092747, -0.1649698684326833, 0.067389056262788599, -0.20522301033413276, -0.068413329434542924, 0.10160559620064426, 0.010197459911890893, -0.026797962847003129, -0.10510059470107729, -0.17551205238528281, -0.15277525100839467, 0.10068691014986127, 0.054869150497602867, 0.086846080052087646, -0.093852022353305573, -0.083394038736820983, 0.077209853337522658, 0.03348153979385033, 0.051650897539355166, -0.012682803304116022, -0.02640657652417765, 0.090584131572638407, -0.086379969311193169, 0.041204016729979323, -0.12221380486223879, -0.055235226682881215, 0.0034290884705010438, -0.10180076977106976, -0.071290050471950556, 0.059453039525541922, -0.19430214845170127, -0.12980562605466239, -0.01795021456153921, -0.00074896103999875976, 0.007441609004200672, 0.0029740742019465009, -0.045585150877973248, -0.11941367376140642, -0.022946680290109291, 0.042976514185704022, -0.0072683533934956102, 0.051513925111279328, -0.17891229167284267, -0.09757004078138673, -0.27434614863191459, -0.019665864126205457, 0.012075651136908091, -0.10560161780106601, -0.069541638048133708, -0.079782410092004152, -0.087912785551897715, -0.0051361695055911353, -0.05611788473890493, -0.058400761265196791, 0.10358115269693273, 0.019359804361985637, -0.022357815156901686, -0.041666690708949385, -0.043481404508731177, -0.085828688255197044, 0.038221441661448682, -0.055507012936423857, -0.1099264046708249, -0.09101621591262897, -0.14653166875485116, -0.026689984767989883, -0.02865710845540953, 0.074477470349292821, 0.0042002358055424956, 0.054131682262048342, -0.11380448046102279, 0.11067381888270669, -0.17327868727970749], [0.15243494444021322, 0.1686418738337126, -0.059956562240547392, 0.073098407323656953, 0.058439752093247685, -0.045208577014296925, 0.066514664354802105, -0.043349811668523662, 0.011007868650730977, -0.077477596856134395, 0.19511696475139542, 0.06620086248343357, 0.044478801215695508, 0.12494922074801357, -0.082939844911765662, 0.03238845779393143, 0.028257302848892621, -0.039308716935500393, -0.0072707520065495041, 0.06940327989669369, -0.029485560003615942, 0.0010565256108645532, 0.013269394591742539, 0.084691094284003079, -0.04543695804076342, 0.049329671629141272, -0.096783445270851115, -0.071315300599049211, 0.044066606771699837, 0.3143278661780452, -0.031722664411730862, -0.038931478271194232, -0.080937674650036262, 0.032850989153940295, 0.046886454987988983, -0.082873166613603833, 0.0098062876788876634, 0.10420121232921581, 0.052493827838380087, -0.0046077105258962858, 0.057895572507773017, -0.045477378277025401, 0.12436818615815387, -0.02123508700907973, 0.05470148998671287, 0.1123564535479423, 0.13266470153815707, -0.096325788509744575, 0.0051989334562564165, -0.017573131804070607, 0.046897641403207527, -0.06028623345099466, 0.080852205777474442, -0.034188185454564167, 0.051464228638521813, 0.021905363332562287, -0.052817168947732501, -0.060968355905699198, 0.10595472261541342, 0.002033132309603222, -0.038983807631304983, 0.096989904621307951, -0.061139675840467207, -0.03299662677493867, 0.040503318253431779, -0.0034619613613511278, 0.035434774903012264, -0.073175008589070861, -0.028141370849532915, 0.0072213887777600651, -0.046070946303668855, -0.029938680970624122, -0.0073400367666111585, 0.079871941443358144, -0.019242685848767843, -0.0092905158742944988, 0.028341934450241621, 0.13024239866610329, 0.13519322930965266, 0.00025478924502161899, -0.054813337634062216, -0.051370772797599183, 0.10667352907448413, 0.065926887288329059, 0.042825271392917939, 0.01936512791556565, 0.10021202483194358, 0.055430642679762845, -0.063174546830265674, 0.10977725305438397, 0.03850299697879022, -0.042111657381736264, 0.046760063225078016, -0.07124203528373052, -0.07063441231694785, 0.0034064721813088011, 0.14788434148694035, 0.016760490546952, 0.14904624630696436, 0.15154546268528801, -0.0088120459427085077, -0.0047298796711838049, 0.021723869291327309, 0.051847343712124565, 0.054137889630036178, 0.064057439177141365, -0.0087784071666684345, 0.044445917478407884, -0.034954513192707141, 0.06947794287308566, 0.11444447718553891, -0.082373672945554283, 0.03147991521174049, -0.014466402279127747, 0.056554298712507348, -0.060495004394556157, 0.12709229517696843, 0.039075575296196471, -0.048962614801323426, 0.020813028503510932, 0.068176612745144236, 0.03916246392862445, -0.059130215456942394, -0.048503396065360124, 0.071952860673470287, 0.016609294852820995, 0.13603667243340498, -0.061056416785854516], [0.013782403050856096, -0.0085981242968453629, -0.068714083245490831, -0.022501184911593187, 0.028512800615537997, -0.12269485522729572, 0.015344945870266679, -0.049457417605098711, -0.11361464839438384, 0.00042683696087255512, -0.12240210672997731, 0.065695147249545241, -0.12462650735552601, -0.1222412253406665, 0.0037063837702691928, -0.13650485031972739, 0.076209700599673344, -0.1020826019056106, 0.013432340474140374, 0.022234211711529669, 0.027155365811835988, -0.072047753178845111, -0.016514461121235252, -0.097517604519148829, -0.0099652629225014857, -0.12121427880643781, -0.032395214068305207, 0.054572683084219809, -0.13700943613805674, -0.26577046238230823, -0.096524067127792074, 0.0023142154830434174, -0.099809386109857609, -0.18284353366673869, -0.040508733664053886, 0.031221895396692571, -0.055731443930966816, 0.0013629544373520116, -0.0011480745993275297, 0.018554504725834323, -0.025509766378476902, 0.045452067218722664, -0.10673620778909218, 0.013857229531426074, 0.03740808219121658, -0.015083018231956387, -0.30581766411534123, 0.021127750943201389, -0.022230697936547628, -0.074238392607303222, 0.080328644588084849, 0.02807822481130224, 0.032098688494410749, -0.072240606936743335, -0.073594206111912017, -0.073429232103456477, 0.035467792741859044, -0.027793725879907159, -0.15197638766469487, -0.13673535359241312, 0.049930602502710052, 0.038275297336930955, 0.075000555098190994, -0.081394917613536455, -0.13191502284252996, -0.054722838596260995, -0.053658754763941087, -0.080947546248512053, -0.0078783017655073839, 0.059205292972261458, -0.13003208290185486, -0.067036446761901167, -0.12184013305650632, 0.023684416709852728, 0.048914403530004626, 0.053682874601154999, 0.11108144587804773, -0.12363969420765399, -0.033562654211948061, -0.161540789915389, 0.069580650345662798, 0.027801850417990621, -0.071729316810974747, 0.030299194759672399, -0.072897647699168219, 0.0025343871185189056, -0.17708679866423618, -0.080918111542160928, -0.070843840311600251, -0.10636694401348089, -0.038738343195125001, -0.039141659661563369, -0.035091725273454256, -0.071906838786586658, 0.054157170980541257, -0.14678056016050689, -0.042463885646312892, -0.11975024934217626, -0.14360042812321608, -0.071504985864718984, 0.022917700833961673, 0.090897127748642198, -0.020788735561858718, 0.031272451210083874, -0.082926896748851564, -0.012256063596048838, -0.050517886752042572, -0.13707851914153271, -0.089586093354518559, 0.074643375193749237, 0.0033838881103523998, -0.016224568759998389, 0.029450064671653505, -0.088986743989317899, -0.14565143798825067, -0.078413641441790458, 0.065081803837889543, 0.044086122052514866, 0.0242816654738639, -0.15554787023451858, 0.037077949189673519, -0.0087156517914282611, -0.031295210775214133, -0.021401512986184656, 0.0033370837149197326, -0.21567345696191328, 0.019451447786124315, 0.038835645928276513], [0.06922479337650711, -0.083132409919060901, 0.0026201685424795118, -0.11177653977162347, -0.080105448612453486, 0.087291526783567011, -0.086246432832506603, -0.0053298082983074188, -0.059371025567906702, -0.035098038093034578, -0.19033931617580357, -0.075077512428111226, -0.10355970999957993, -0.093571642371235109, 0.089270743029305891, 0.02684917037596303, 0.05333972720197476, -0.057364812126097085, 0.050457122104574759, 0.014885848129440537, -0.0076306947239422034, -0.022407820409936701, 0.079648703149150055, -0.011821450867016005, 0.096424018221986332, -0.05005412924682269, -0.083163102707791842, -0.061359492096299095, -0.034924077515644941, -0.19054088987037363, -0.15288962747608525, 0.0041832767527115247, -0.021342035531652696, 0.00094835176704897246, -0.10922790398886585, 0.099874912710546521, 0.056549085274055028, 0.0084433405802213854, 0.11114224067231263, 0.00099729091721696694, -0.063077453505201886, 0.01665220362807877, -0.05599022943971993, -0.05854785679894247, -0.070747252041007472, 0.032343685789506027, -0.0048846937696090231, 0.0791923623502295, -0.074055876802799001, 0.010946367273202202, 0.08840050412842132, 0.0060155411108309192, -0.1110527956491893, 0.018817242184223665, -0.14566777723919636, -0.11119703090645905, -0.015012321027371727, 0.015712049684501832, 0.048486124750866298, 0.041522171702007081, -0.076717332076015124, 0.063620542384300052, -0.11067953015582267, -0.017758230645854165, -0.099477737435280641, -0.073701699213671812, -0.043297457501847755, 0.068877542101491662, -0.0020713818452241933, 0.068681194625697925, 0.059843417083331671, -0.10201174642946517, 0.059187068926247532, -0.016106196417610397, 0.019314843753776862, -0.047793122537653679, 0.02062726786722803, -0.11791960333968526, -0.1091219513327832, -0.094049375297276472, 0.065045909983308184, -0.12139834224588873, 0.0098211128797924332, 0.048704120291954346, 0.069789138559366332, -0.065793398423491883, -0.044347488760954616, -0.027604094305760427, 0.024127545902548862, -0.10640854884366727, 0.041264949417353931, 0.065367454965098243, -0.033893174681359446, 0.095559402487954942, -0.025718332400257862, 0.0090459089433301224, -0.074607959288521888, -0.045308186211404367, 0.0074197141728639324, -0.04749619597445584, -0.026415181402047919, -0.054095295093008901, -0.0008446449705201152, -0.11534034293225569, 0.053092318993923311, 0.094887881174086947, -0.00055171860540741916, -0.085494055276675793, 0.025369956601669831, 0.04036750274567498, 0.10160849312620368, 0.11481757382475853, -0.089881743255390945, -0.082505770521828101, -0.18411325516800028, -0.10444073765049858, 0.084414067646364485, 0.051474691859377017, -0.020595584898033599, -0.064798808067535699, -0.0016669089311936256, 0.017316228774195683, -0.11203252775934311, -0.10731927922083197, -0.090558801608520229, -0.13646808854438383, 0.042784407570840503, -0.089464527938216007], [0.058060832445458919, 0.029782091140730379, 0.076357500457457636, -0.016659455517760415, 0.028368399497899436, -0.063541359782865861, 0.032042125522148218, 0.021689626639426727, 0.031423294852295391, -0.042482698117552689, 0.013432089038780633, -0.065781534219958318, 0.025651393921347177, 0.047917767731266714, 0.062905561315144187, -0.0772487464902233, -0.011042904261834283, -0.057014398369046912, -0.095996422262362338, -0.098831198150668473, -0.062665281061254352, 0.021662882955263623, -0.070493497848703776, -0.037905599553742543, 0.070574423487757179, 0.096636279868262592, -0.052690328511337182, 0.0081837572975517487, -0.06565793775855655, -0.22713740514662262, -0.043395567856203458, -0.086519491186602154, -0.019268391015214673, -0.15855083278689716, 0.0066715809057190378, -0.033397801907297638, 0.050649795576064187, -0.073380088835860932, -0.021797759170558335, -0.017569800543525735, -0.039792221226135488, -0.12597624598200904, -0.11316267640858663, -0.074474526362074286, -0.055045916664174487, 0.065539743119755967, -0.2397582991765867, -0.0096308090357635091, 0.031286690226084907, 0.062106237349525667, 0.076565454071257505, 0.052359921254707446, 0.02756628434021496, -0.019819983156364823, -0.14527814815593779, 0.044053510276926611, -0.065665482024481484, 0.050194358177352259, -0.075968494666103129, -0.038625481803339974, 0.043009901691837944, -0.083965681074723617, -0.01638473812150669, 0.053805160493493813, -0.10262760598238305, 0.0012568107651779444, 0.11023934793872307, 0.055296046224978683, -0.053991768407663759, 0.085311405838371823, -0.041425454897360298, 0.061039859064834417, 0.029069413791671661, -0.14894180687638192, -0.11260225728841403, -0.064372289389373227, -0.084018777308860343, 0.027817482519091108, 0.047843285908169081, -0.061005700495595186, -0.0047893298404703246, -0.040707088582173846, -0.083086788604361847, -0.045122216014485302, 0.050267874014755277, -0.0077980797091928853, -0.061202629540650998, 0.012921956618000482, -0.0023424512712404959, -0.11653948181239125, -0.075793599977819329, 0.090448719605190381, -0.039659966063523656, -0.010475165251042629, -0.077498362949536936, 0.0096025543558135827, -0.09140705711801779, -0.10290053596756826, -0.032605122477211708, -0.17108660415027158, -0.10461131353243477, -0.046380402289559211, -0.033103021984376375, 0.023120924188122834, -0.0075862155390938315, 0.097194931668927245, 0.020440487819778211, -0.083796983548383788, 0.0082744053114087932, 0.054606458108671999, 0.093859302580194648, -0.014108005263073025, -0.019053983502292777, 0.067676890959944058, -0.022939420200371291, -0.068915386157354555, -0.090193390776748289, -0.11234462948516752, 0.078441244491316522, -0.14363590557196748, 0.01237806439686967, 0.038084768801836102, -0.086795876900244706, -0.13034605707473579, 0.05903871665265692, -0.063573459825018289, 0.0058924373773101115, 0.056896678780672151], [0.087690863513232714, 0.014487083928062059, -0.037568202110084103, 0.0053931691200864188, -0.04845555048689839, 0.10763037155664033, 0.089721749478536048, -0.0034956842619863933, 0.082006901381543693, 0.089515927689493874, -0.074240295426838424, 0.07506032956186455, -0.0021109078724220751, -0.017270013691345294, -0.1010959700391907, -0.017674476462011444, 0.092780015222774279, -0.0529426083061139, 0.04444476046358966, -0.044447731029732249, -0.070814604278186463, -0.11680608404623288, -0.063027155422086326, 0.010267205294808878, 0.0379791668828715, -0.032268121433017709, -0.040121349858616193, 0.054348841112064013, -0.06794056015170663, -0.027087331298985724, 0.0094374563291481032, -0.12530718233030161, -0.094757794732905243, 0.062753413422420051, -0.039253100925018332, -0.092600105118325005, 0.038017967168972294, 0.085263325119996902, 0.095330924732840203, -0.077589563825484736, 0.00052009153943702085, -0.059567206126648349, -0.038351566603656302, -0.023824942272561028, -0.058947912661487106, -0.090598725954288903, -0.0011105365066730862, 0.022527881172401596, -0.082901379230784583, -0.074287436151805317, 0.10516935213681682, 0.058028743681536959, 0.065375842936906806, 0.045165104954629026, -0.10236334607418963, -0.020491522719542844, -0.03081612603905819, -0.068504936067582275, 0.012677598480940159, 0.060468394614962492, 0.021929918031940047, 0.1039907834969698, -0.10102267415430535, 0.095624810230894933, -0.057352447190738343, -0.074300531307491355, -0.011877876595660072, -0.009566351961262055, -0.061560963449510349, 0.047190112518947974, -0.11718438423917017, -0.093440551901472671, -0.080479075414973386, 0.039910438999627665, -0.11542209591984533, -0.063594648941852641, 0.03413228476849213, 0.070792653578562195, -0.095780328951727181, -0.12139553089724142, -0.089014955718481545, 0.039546193724595807, 0.045073664182718916, -0.10680742946648494, 0.077465173931038842, 9.9426724118283245e-05, 0.043273346567351711, 0.1027746608527733, -0.011971191456220762, -0.056550948366631687, -0.057800583423490315, -0.096481538351804813, -0.0166651115090529, 0.020241640704937183, -0.087249049724186206, -0.087034311794826485, 0.06992209455321384, -0.11041845346675967, -0.047865238032573525, -0.058590199641028878, 0.051031979870490914, -0.07492032492918084, 0.039867972676787503, 0.0551096095564058, -0.094181875773809945, 0.021100750874349945, -0.063541032725784125, -0.11044607475360119, -0.045915687116896142, -0.092942083697427569, 0.046979886119419077, 0.032895074662580508, -0.10607922611450024, 0.038332239869226341, -0.039157635911095404, -0.10733365299554794, -0.0041687311020399478, 0.039163483536490858, -0.10421585397910736, -0.033499577709094175, -0.094190330725153371, 0.012801442365567794, 0.025750089568955456, 0.021886428179511013, -0.013624057006366295, 0.057769803327782893, 0.017068174671408094, -0.090451876091260736], [-0.12526293489477122, -0.022793648540505484, 0.047974827448226023, -0.019511255186091241, 0.054097628460382817, -0.094142649741418796, 0.045445271837192734, -0.048592661411220268, -0.042226286366387797, -0.014281775076591424, -0.038390291626086238, -0.078077627365305755, -0.16285615871768019, 0.018786594342130144, 0.046930741695749283, -0.03409779634934796, -0.069795041592700502, -0.11963860740344461, 0.031218229110505924, -0.14401985024635922, -0.013475742738074404, -0.088834725144756502, -0.10422085123104351, 0.039541151869012359, 0.090483489924441898, -0.080158892875467069, -0.080363575270335649, -0.1660417350281243, -0.0048578532097742115, -0.40245163938310785, 0.0045435120200372162, -0.087902748121994029, -0.10513437243739153, -0.12650760167226899, -0.022938986086457624, -0.01937059462269463, -0.10908208504044853, 0.013434874324680294, -0.11303893763844251, 0.095961924604063734, -0.26113961874124081, -0.030333045666813708, 0.017369997011882864, -0.019077238091800841, -0.021375111653078371, 0.081183910892190791, -0.22555609202200158, -0.027577415586374901, -0.11722538898616976, -0.011042659592603858, 0.082353915022277097, -0.09963336169593183, 0.066159518891186653, 0.04831621591770191, -0.17240739498155166, -0.10953780215514582, 0.054996095347736564, 0.08627515325904031, -0.15862834610947504, -0.018528344734366167, -0.01718357093014139, 0.051932120182675082, -0.0057522407586557828, -0.12753463403314616, -0.081768961105102289, -0.15671518760933939, 0.011218609637401247, -0.002826849872411484, 0.082282515192520042, 0.042434810226904512, -0.12992852821246145, 0.065637867707645847, -0.071989985464764428, 0.045089819273413559, -0.11613555276432304, -0.02701760587763171, -0.10886227302863949, -0.12390852353209493, 0.0131424868640523, -0.15131172942513524, -0.093775993745603289, -0.034117196154929613, -0.17524266629746699, -0.026339535697815407, -0.11094954618330857, -0.18185229094564023, -0.20700947004544568, -0.029147429844092618, 0.078391371028930873, -0.054298531433508587, -0.041737338473225173, 0.0030976040977899045, -0.034573441478205368, -0.10439511815327114, 0.0050263720355210864, -0.027161935251788522, 0.028409572036432258, 0.0069886041815415915, 0.011186788285768337, -0.08022344297106479, -0.044882101313074615, -0.056595022651618559, -0.046123165820060305, -0.051991070618182401, -0.023293498247818321, -0.031382767852651268, 0.022672764609082387, 0.056999045397733455, 0.090841103125710657, -0.095959575239759509, -0.011144720052040065, -0.041144797216765588, -0.11772988176106, -0.010935901292224973, -0.073234816741158185, 0.027964338827432593, 0.067939460530694162, -0.12270601299865622, -0.10634396665436335, -0.019030583706416439, 0.023973564574696508, -0.061419078962396345, -0.055104933448610331, 0.033589524074686274, -0.049259550480117716, -0.21862901257914613, -0.050467851058820089, -0.00013454002598846412], [0.0088367397291211156, -0.10037101812395248, 0.035874000537931508, 0.012322584357787627, -0.097561982111052853, -0.11461231865944693, 0.031653758813740308, 0.036820772942423023, -0.0069114254774405312, 0.0089149685712533351, -0.20505163714548569, 0.071047997530586438, -0.19881055052140614, -0.16697672113917439, -0.091611146453127623, -0.024731866979303081, 0.029909656104701268, -0.15631153454155916, -0.13989709390296801, -0.021781366477832208, -0.10834310078513265, -0.093319943756821858, 0.0036937356713288645, -0.071604305550975231, -0.095505687288926056, -0.10046420026622965, 0.1016245343383555, -0.078324141223229379, 0.015170951182417654, -0.41522564000895396, -0.11255040400599611, -0.054920882143115135, -0.11205221378280381, -0.16302426570737846, -0.048603347485515973, -0.01132487373223867, 0.054320874946130561, 0.025922477030834921, -0.067329729848233585, 0.025402867145615446, -0.16544654199104564, -0.044113475312158625, 0.017646042971066086, 0.014622832444785789, -0.05932321224051653, -0.083747955541608715, -0.14652963587316564, 0.071881364459249517, 0.051830404469356481, -0.13599268359894079, -0.064315414663832185, 0.04842935060291774, -0.14507949672220946, -0.11597975556167557, -0.036468297523777157, -0.11438452076620907, -0.12452162870222848, -0.057079097950553312, -0.15317437571884626, -0.051076529609843976, -0.023641032962773791, -0.030320101055823771, 0.0028083333897967605, -0.12154451541610892, -0.12973391870296014, -0.17329821697798181, -0.014724480709270404, -0.031824615277969918, 0.038611442322500952, 0.014325928656531973, -0.054044521929462234, -0.11113210080226156, -0.14571994030907165, -0.14650206007876609, -0.14428086484405733, -0.01466659337347106, -0.11093422686256534, -0.085158654750440335, 0.032808572520631678, -0.10876505512433816, 0.098904109105306573, 0.021124566748299791, -0.23213910171026092, 0.0094308765697327414, -0.071752142203302172, -0.11352167076584672, -0.20505802287607974, -0.10484157716444054, -0.11192140050222595, 0.046505426603098213, -0.061240303262045569, 0.040631633813057143, -0.092223597258266898, 0.10430932963722978, 0.071766188234242231, -0.11123385422758605, -0.14342534504895346, -0.033292045078060134, -0.074594739088163595, -0.20097842575147257, -0.10654473436709459, -0.034406836281801495, 0.053819025341557039, -0.10924474153942476, -0.049474538152541839, 0.10195540954817717, 0.040457075363397696, -0.1311442858351865, -0.030698676318898607, -0.10262776459514268, -0.11745370729255074, -0.094631940906793041, 0.0040274644609853208, -0.098912724202845873, -0.1820283108483676, -0.061338794596504209, -0.092431264376762426, -0.054265575080311518, -0.13520483426085236, -0.065936032103250206, -0.11211679594147572, -0.064040930911378774, -0.033251031738834216, -0.01712118003787521, 0.024249599227230561, -0.13629196596019447, -0.0079016477794198493, -0.1320448120730392], [0.027232286557029937, -0.031732075631043896, 0.081518795368649546, 0.052463407698010299, -0.031991122615648404, -0.052511860330855288, 0.14884777527176046, 0.022897920852814353, 0.048472091597360087, -0.069314917933565909, 0.16172440325555359, 0.040143461742579885, 0.090966827841219011, 0.024092453084836436, -0.064794153077344929, 0.10091412118139491, 0.072597533935099309, -0.011986191551752214, 0.074301905195298834, 0.1133311579075595, -0.010927381696121941, 0.026021993012816675, -0.022490718281740443, -0.10027194717981813, -0.0018247200848326294, -0.016791563804160862, 0.11054756948077181, 0.0062883871140154467, 0.14849901594812739, 0.36554286525858914, 0.16379182609042453, -0.032960564417879389, -0.00015713539878223746, 0.074076530192024564, -0.10291922335658563, 0.047556206944509419, 0.1373358116570397, -0.067514808197087342, 0.049503760650721838, 0.062056306962007798, 0.033879700491680251, -0.0018506354290442366, 0.11344139384642923, 0.094883367972304802, -0.049992282379700034, 0.057974692428698141, 0.22159163972868468, 0.010242919765611404, -0.027288493042901686, 0.041918707361391742, 0.040578986821163475, -0.0097292713618988627, -0.06522499290066347, -0.0039495444515249226, 0.067357038084465234, -0.0032864847012087123, 0.1219265820805269, -0.098386606294615681, 0.10513428190084841, 0.10868047201410341, -0.11969884498821835, 0.090204616534423021, -0.038056881154199015, -0.075032608691760844, 0.019871871676373623, 0.10426703986998614, 0.053812928928501244, 0.062839574574385423, 0.0013180765679542683, -0.10604695453162725, -0.025496958561500443, 0.0025359941194455357, 0.065784611989058744, 0.069667720171988426, 0.10096880075489818, -0.028495495164666179, -0.0095029953046886217, -0.044160662239329504, 0.12942908404006279, 0.15756869239502028, 0.10735918323176398, 0.016468824652551312, 0.22882929166770277, 0.049264336008375743, -0.096744652048127808, 0.036634577740275252, 0.060259954373426482, 0.086233135785919249, -0.087840246397189278, -0.083896453859784989, -0.096202669192807219, 0.0049448859224127143, -0.012387645600769865, -0.05044677180934895, 0.02082474812621821, 0.058554434015559896, -0.062562864817318778, 0.11425014086561845, 0.13458215333037798, 0.23525959046654937, 0.11226781214925596, -0.079768857830901901, 0.030748576797794767, 0.095871986084736766, -0.0094564880672892114, 0.077969195262463389, 0.031013778815634319, 0.14689035393186883, 0.11839883386095748, 0.094545657077119108, -0.021133315175665867, 0.051344622215665714, 0.091481735583269136, 0.04332945843805245, 0.040817626694176247, 0.057648224579461171, 0.065116569911998712, -0.091258678241573354, 0.017048943837167433, -0.050171574768857627, 0.0092542567481287297, 0.029903776866886209, 0.02112521799685492, 0.093578807532046573, 0.092888844913701404, -0.0028983802328978979, 0.085660730860850451, 0.019250709193065405], [-0.093271387507777109, -0.034478071003429714, -0.06718613995109543, -0.0065971464573540252, -0.067270301481426542, 0.047495633115320901, -0.11987595193239124, -0.074482653511697125, -0.0020539291947057566, -0.10985166077032896, -0.19873618298309007, -0.049069628660421444, -0.055568020080719011, -0.09704916654509993, -0.046388002520322109, -0.076200520781933123, 0.087359276421240264, -0.0036340680270966126, -0.0089544310277583725, -0.068239236880823118, -0.080892157322670216, -0.19691168218283328, -0.12079747910096358, -0.048696592873699693, 0.010795677708400358, -0.090585760747974614, 0.066079507664838194, -0.12087060127578217, 0.028104319582869096, -0.40985944738513058, -0.039588849853509057, -0.050837389590647472, -0.018114779708048555, -0.11407422098147973, 0.049551126120531891, -0.10956029472629775, -0.027953820701275355, -0.11427020345470984, 0.019805013365785641, -0.046758688901863105, -0.092435709012678877, -0.13810711426091452, 0.045560393425423361, 0.084307308653217061, -0.047470181748617141, -0.035296134027939852, -0.097467003192825002, -6.565624230598546e-06, 0.0473255432968318, -0.012163556405373584, 0.079932350210510761, -0.084802688863958975, -0.025360398510490118, -0.085305873644198268, -0.10377711305435723, 0.039611528488804643, 0.039651816014768443, 0.025393805619712585, -0.048745710669520298, -0.10951422602888124, -0.00013373677831738046, -0.040994401500216326, -0.074022163164704363, 0.041628469831507246, -0.068935958092378319, -0.10415305319825809, 0.10193278276531843, 0.096144802734089027, 0.0054980600023417786, -0.082132939993276186, -0.10795669452519725, 0.098974913406721668, 0.056433942848267755, -0.065982641316804355, -0.11011584037478418, -0.084665092165336242, 0.01714800518663627, -0.10403873886376695, 0.040323036179842231, -0.062558650301127033, 0.069063938654673557, -0.027189087339135228, -0.28047347489959484, -0.0884402167248102, -0.013451201155423132, -0.14280504172060171, 0.035456777947206711, -0.070060762530073373, -0.061344266939867699, 0.079447958015886569, -0.050791746397990334, -0.00062553152588244341, -0.020390476444429165, -0.012016884808084478, -0.030476945660670746, -0.040903811050171164, 0.011535532266751383, -0.19881127345819344, -0.12850257343752705, -0.25013110087338736, -0.040794703645937173, 0.02847460928277076, -0.041261070848429594, -0.023259437701127556, -0.15183010411368716, -0.064477449019293157, 0.049511060126505087, -0.12889108718521647, 0.092686026804073007, 0.039316245390263002, 0.033224880087465693, 0.071080476521111796, -0.070124941324547496, 0.088217802194278688, -0.059030086256435091, -0.042432034446148938, -0.13215163934171492, -0.024759460342300567, -0.0017743578734646982, -0.12657408262437078, -0.018966241283388557, -0.10740703668776536, -0.074993068014884118, -0.054366422454313293, 0.072670243043951518, -0.12380789427547423, 0.099383301139379751, -0.14330989353661694], [-0.075855900744280891, -0.16572336262281814, -0.080242192484013708, -0.15218703469946299, 0.011332193038270249, -0.026188944739171563, -0.1049529331122806, -0.034744689519354825, 0.049680651609676274, 0.032314185625195023, -0.061833138871915487, -0.054503540041169272, -0.057705973480459756, -0.081316080118850026, -0.069690519398730458, 0.023793381073194092, 0.048517972486328373, -0.014727470772137274, -0.016410771306503862, -0.10351402849463914, -0.12139474038338836, -0.147316635206522, 0.054298852179594313, -0.11146144702878148, -0.063278753535582127, 0.025951798437443212, -0.016404761959208886, -0.024265476569049614, -0.15316783452236687, -0.24149830259463828, -0.043113296785464029, 0.026590017562418571, -0.067937364100110434, -0.005719301504960049, 0.052151815378322863, 0.090238616106364647, 0.037200446695219838, 0.03806297184779054, -0.1017547786263016, 0.018251061592816323, -0.047047221029977472, -0.011009759885437433, -0.12678304753891687, 0.013217484104902423, 0.064402909555914586, 0.033432131297870912, -0.10655129593990574, -0.11622369118754884, -0.079499240918411901, -0.12477206968848921, 0.057785302867221673, -0.01697687242829175, -0.094200387497092003, 0.074724245318963628, -0.15497593714225344, 0.014571556694199173, -0.13036655595251601, 0.094494208290750836, -0.10671057350826524, -0.11441400778353293, -0.079608275398889108, 0.012195315790559717, -0.075935861123989964, -0.097270284566941909, -0.12877055356417266, 0.017855720996469749, 0.089936560243060223, -0.025902564902776728, 0.022570984721770396, 0.0015534974557880271, -0.069530726531021617, 0.075439295599199402, -0.0044214505438589522, -0.093168354743926818, 0.040791159351728445, 0.040699777760820378, -0.083940689781447655, -0.021648336763969604, -0.05215773100235202, 0.00066842912225380344, 0.10288238501821718, 0.037931613120112208, -0.13003943655417285, -0.051047842864199014, -0.053023209209681593, -0.14951797214555418, -0.069937682520642544, 0.054705379037763138, -0.08686316572237901, -0.084871084910106462, 0.053214178518511582, 0.04939327697291996, -0.018803603300999921, -0.04696967382598554, 0.058862566811134477, -0.11840366673196297, -0.034410089474758057, -0.033855037793796471, 0.019889592494228652, -0.081854727346766118, -0.097929564862232199, -0.023132102752595168, -0.072799955951569864, -0.056352143527127939, -0.15032472573567315, 0.10812375583735777, -0.0030725629259235939, -0.13225180612907128, 0.024703268599881416, -0.044802696079986382, -0.069340446890503366, -0.083465085151057619, 0.0067964882221133666, -0.012647252683389775, -0.20056590059088808, -0.093241330286113047, -0.034904494191780086, 0.029348184946227696, -0.12189967526435212, 0.048026611996116526, 0.033157492887215076, 0.084918580867944224, -0.10758479133625046, 0.078320240149135203, -0.048482734673267518, 0.01464281264985532, 0.02780966755316815, -0.0088382474171901353], [-0.15017689225561826, -0.086819090180656658, 0.084211584632723976, -0.091009770174286186, -0.0059766073427382181, -0.041079379150552632, -0.045663138223550795, -0.089756644606763344, 0.026044003865166587, 0.066779163929599331, -0.13852363177924093, -0.062398021090205903, -0.10808425590377223, -0.037936515163990416, -0.010695410157135108, -0.066502474585167351, 0.032566324072856936, -0.084489813140661466, 0.065920691335440859, -0.13280421337845036, -0.10891898002689086, -0.00097922471538734474, -0.081284242613843108, 0.00074338913842083828, 0.034403991508636551, -0.048421633200336558, 0.10920348480411916, -0.1135763938893669, -0.002140504373909688, -0.30051801222619473, -0.005800978071439887, 0.0046575123363316187, -0.010457747030582719, -0.11789415541862475, -0.025377882940716478, 0.067877771010606047, -0.0067027869118674406, 0.054986808937642524, -0.091042318020766969, -0.016267773545090847, -0.039316222138116537, -0.067067261839081224, -0.075915636568680556, -0.012068776744895015, 0.059848446129756337, 0.060371627168192735, -0.049504735287141999, 0.031617665969488257, -0.086518501093018729, -0.11681991668600679, 0.0073348017809258736, 0.062566298469489787, -0.060863994108957598, -0.1216968147327543, -0.055129382592617751, -0.15941200866867325, 0.012206562144838054, -0.023964448894537704, -0.15196000337773655, -0.060548565204239173, 0.10284271130281904, 0.0086485592352525346, 0.022879709849439503, 0.019341876855796924, -0.0051787045405843231, -0.052874697891397537, -0.099408180462597015, -0.084577460609722183, 0.013708304184020928, 0.02602371701693933, 0.035791887385651644, -0.057532258289389411, -0.094573173198977012, 0.064022272202385114, -0.064725235564496691, -0.044664287315277995, 0.055652932552927373, -0.0024428616965329461, 0.084927891771055433, -0.021368822869558907, 0.10803910268491533, 0.050948757888567606, -0.044842521281175017, 0.071671687462575809, -0.096867044739073732, -0.078206663312008096, -0.021855195439682083, 0.04345278810640478, 0.028981084214760103, -0.12785138065375157, -0.031237419109918053, 0.085777099193097409, -0.080604563693338668, -0.077373877009189115, 0.035368485170066459, -0.049698716189397189, -0.045594996969923286, -0.11635350781752676, -0.11442575298167756, -0.093521288459054552, -0.047790797808881375, -0.08745417784514091, -0.03166776361529023,